{"learner":{"attributes":{"scikit_learn":"{\"_estimator_type\": \"classifier\"}"},"feature_names":["montant_log","heure_num","est_nuit","est_weekend","type_transaction_enc","canal_enc","banque_enc","ville_enc","est_internationale_enc"],"feature_types":["float","float","int","int","int","int","int","int","int"],"gradient_booster":{"model":{"gbtree_model_param":{"num_parallel_tree":"1","num_trees":"300"},"iteration_indptr":[0,1,2,3,4,5,6,7,8,9,10,11,12,13,14,15,16,17,18,19,20,21,22,23,24,25,26,27,28,29,30,31,32,33,34,35,36,37,38,39,40,41,42,43,44,45,46,47,48,49,50,51,52,53,54,55,56,57,58,59,60,61,62,63,64,65,66,67,68,69,70,71,72,73,74,75,76,77,78,79,80,81,82,83,84,85,86,87,88,89,90,91,92,93,94,95,96,97,98,99,100,101,102,103,104,105,106,107,108,109,110,111,112,113,114,115,116,117,118,119,120,121,122,123,124,125,126,127,128,129,130,131,132,133,134,135,136,137,138,139,140,141,142,143,144,145,146,147,148,149,150,151,152,153,154,155,156,157,158,159,160,161,162,163,164,165,166,167,168,169,170,171,172,173,174,175,176,177,178,179,180,181,182,183,184,185,186,187,188,189,190,191,192,193,194,195,196,197,198,199,200,201,202,203,204,205,206,207,208,209,210,211,212,213,214,215,216,217,218,219,220,221,222,223,224,225,226,227,228,229,230,231,232,233,234,235,236,237,238,239,240,241,242,243,244,245,246,247,248,249,250,251,252,253,254,255,256,257,258,259,260,261,262,263,264,265,266,267,268,269,270,271,272,273,274,275,276,277,278,279,280,281,282,283,284,285,286,287,288,289,290,291,292,293,294,295,296,297,298,299,300],"tree_info":[0,0,0,0,0,0,0,0,0,0,0,0,0,0,0,0,0,0,0,0,0,0,0,0,0,0,0,0,0,0,0,0,0,0,0,0,0,0,0,0,0,0,0,0,0,0,0,0,0,0,0,0,0,0,0,0,0,0,0,0,0,0,0,0,0,0,0,0,0,0,0,0,0,0,0,0,0,0,0,0,0,0,0,0,0,0,0,0,0,0,0,0,0,0,0,0,0,0,0,0,0,0,0,0,0,0,0,0,0,0,0,0,0,0,0,0,0,0,0,0,0,0,0,0,0,0,0,0,0,0,0,0,0,0,0,0,0,0,0,0,0,0,0,0,0,0,0,0,0,0,0,0,0,0,0,0,0,0,0,0,0,0,0,0,0,0,0,0,0,0,0,0,0,0,0,0,0,0,0,0,0,0,0,0,0,0,0,0,0,0,0,0,0,0,0,0,0,0,0,0,0,0,0,0,0,0,0,0,0,0,0,0,0,0,0,0,0,0,0,0,0,0,0,0,0,0,0,0,0,0,0,0,0,0,0,0,0,0,0,0,0,0,0,0,0,0,0,0,0,0,0,0,0,0,0,0,0,0,0,0,0,0,0,0,0,0,0,0,0,0,0,0,0,0,0,0,0,0,0,0,0,0,0,0,0,0,0,0,0,0,0,0,0,0,0,0,0,0,0,0],"trees":[{"base_weights":[-8.8103086E-8,-1.1850404E0,1.8610265E0,-5.351971E-1,-1.7511343E0,1.7108465E0,1.9567968E0,-1.7674392E0,9.2123106E-2,-1.7911565E0,-7.072246E-2,1.7861522E0,1.1662285E0,9.811699E-2,9.75014E-2,-1.8914201E0,-1.2735647E0,-1.3234675E-1,5.32293E-1,-1.8821888E0,-1.4684638E0,-5.0727355E-1,2.3438478E-1,1.2424066E0,1.8306195E0,1.0143245E0,1.2788236E0,-1.9306984E0,-1.8404198E0,-1.521464E0,-1.0533987E0,-5.7954055E-1,-2.3769436E-2,7.364611E-1,-8.1046766E-1,-1.7509913E0,-1.9650505E0,-1.209182E0,-1.75166E0,1.1240544E-1,-1.0223869E0,3.515089E-1,-1.0804098E0,1.3568555E0,8.813562E-1,1.8725678E0,1.5900049E0,8.9261085E-1,1.2218046E0,1.4122914E0,1.0776302E0,-9.4639786E-2,-9.844454E-2,-9.2894845E-2,-8.2846336E-2,-7.918493E-2,-5.2157618E-2,-5.711027E-2,-2.1469139E-2,-1.0185168E-2,-3.6611002E-2,6.608553E-3,-2.0055149E-2,4.402606E-2,1.5313518E-2,-6.725925E-2,-2.887215E-2,-9.795123E-2,-5.4611918E-2,-9.975084E-2,-8.765183E-2,-5.461969E-2,-7.001651E-2,-9.076395E-2,-6.79162E-2,-9.915956E-2,2.5844935E-2,-9.9639684E-2,-2.8886875E-2,3.381684E-2,3.149163E-4,1.9107668E-2,-9.914697E-2,6.984193E-2,2.992031E-2,5.5586785E-2,9.537794E-3,9.129909E-2,9.506194E-2,7.692688E-2,8.445195E-2,4.7592696E-2,-2.1336768E-2,1.9146543E-2,6.817086E-2,7.446133E-2,5.2065916E-2,5.617355E-2,-1.2093873E-3],"categories":[],"categories_nodes":[],"categories_segments":[],"categories_sizes":[],"default_left":[0,0,0,0,0,0,0,0,0,0,0,0,0,0,0,0,0,0,0,0,0,0,0,0,0,0,0,0,0,0,0,0,0,0,0,0,0,0,0,0,0,0,0,0,0,0,0,0,0,0,0,0,0,0,0,0,0,0,0,0,0,0,0,0,0,0,0,0,0,0,0,0,0,0,0,0,0,0,0,0,0,0,0,0,0,0,0,0,0,0,0,0,0,0,0,0,0,0,0],"id":0,"left_children":[1,3,5,7,9,11,13,15,17,19,21,23,25,-1,-1,27,29,31,33,35,37,39,41,43,45,47,49,51,53,55,57,59,61,63,65,67,69,71,73,75,77,79,81,83,85,87,89,91,93,95,97,-1,-1,-1,-1,-1,-1,-1,-1,-1,-1,-1,-1,-1,-1,-1,-1,-1,-1,-1,-1,-1,-1,-1,-1,-1,-1,-1,-1,-1,-1,-1,-1,-1,-1,-1,-1,-1,-1,-1,-1,-1,-1,-1,-1,-1,-1,-1,-1],"loss_changes":[1.1372721E6,1.1590056E5,2.882125E3,1.13386E5,1.1324031E4,3.202125E3,8.125E-1,3.0274531E3,9.603834E3,4.8284375E3,5.219791E2,1.6572188E3,1.610752E2,0E0,0E0,7.56875E1,5.404971E2,3.125615E3,9.000208E3,1.391E3,2.6553203E3,5.147152E2,3.556271E2,2.1333301E2,6.37375E2,1.01086426E2,1.4478027E2,2.8585938E1,5.2179688E1,1.3735254E2,2.9120703E2,7.2149756E2,3.0479155E3,1.7656797E3,5.391426E2,6.8037812E3,4.959375E2,4.2031445E2,4.3033203E2,6.220945E2,3.7875037E2,2.376022E2,2.501571E2,1.18651855E2,1.9905243E2,6.86875E1,4.544336E1,2.0001892E2,1.7687012E2,9.184131E1,1.0998779E2,0E0,0E0,0E0,0E0,0E0,0E0,0E0,0E0,0E0,0E0,0E0,0E0,0E0,0E0,0E0,0E0,0E0,0E0,0E0,0E0,0E0,0E0,0E0,0E0,0E0,0E0,0E0,0E0,0E0,0E0,0E0,0E0,0E0,0E0,0E0,0E0,0E0,0E0,0E0,0E0,0E0,0E0,0E0,0E0,0E0,0E0,0E0,0E0],"parents":[2147483647,0,0,1,1,2,2,3,3,4,4,5,5,6,6,7,7,8,8,9,9,10,10,11,11,12,12,15,15,16,16,17,17,18,18,19,19,20,20,21,21,22,22,23,23,24,24,25,25,26,26,27,27,28,28,29,29,30,30,31,31,32,32,33,33,34,34,35,35,36,36,37,37,38,38,39,39,40,40,41,41,42,42,43,43,44,44,45,45,46,46,47,47,48,48,49,49,50,50],"right_children":[2,4,6,8,10,12,14,16,18,20,22,24,26,-1,-1,28,30,32,34,36,38,40,42,44,46,48,50,52,54,56,58,60,62,64,66,68,70,72,74,76,78,80,82,84,86,88,90,92,94,96,98,-1,-1,-1,-1,-1,-1,-1,-1,-1,-1,-1,-1,-1,-1,-1,-1,-1,-1,-1,-1,-1,-1,-1,-1,-1,-1,-1,-1,-1,-1,-1,-1,-1,-1,-1,-1,-1,-1,-1,-1,-1,-1,-1,-1,-1,-1,-1,-1],"split_conditions":[1.1899996E1,9.644781E0,1.288173E1,8.358901E0,1.1791185E1,1.2472192E1,1.3250142E1,8.1792E0,9.283405E0,1.1085813E1,1.1836812E1,1.1996839E1,1.2643876E1,9.811699E-2,9.75014E-2,8E0,8.273847E0,8.513787E0,9.562826E0,1.0378541E1,1.1323857E1,5E0,1.2E1,1E0,1.2259769E1,7E0,5E0,7.590347E0,1.1E1,9E0,4E0,3E0,8.936167E0,9.475393E0,5E0,1.0284455E1,1.0977397E1,3E0,1.1718931E1,4E0,2E0,5E0,2E0,4E0,6E0,1.2115661E1,1E0,4E0,4E0,1E0,1.1E1,-9.4639786E-2,-9.844454E-2,-9.2894845E-2,-8.2846336E-2,-7.918493E-2,-5.2157618E-2,-5.711027E-2,-2.1469139E-2,-1.0185168E-2,-3.6611002E-2,6.608553E-3,-2.0055149E-2,4.402606E-2,1.5313518E-2,-6.725925E-2,-2.887215E-2,-9.795123E-2,-5.4611918E-2,-9.975084E-2,-8.765183E-2,-5.461969E-2,-7.001651E-2,-9.076395E-2,-6.79162E-2,-9.915956E-2,2.5844935E-2,-9.9639684E-2,-2.8886875E-2,3.381684E-2,3.149163E-4,1.9107668E-2,-9.914697E-2,6.984193E-2,2.992031E-2,5.5586785E-2,9.537794E-3,9.129909E-2,9.506194E-2,7.692688E-2,8.445195E-2,4.7592696E-2,-2.1336768E-2,1.9146543E-2,6.817086E-2,7.446133E-2,5.2065916E-2,5.617355E-2,-1.2093873E-3],"split_indices":[0,0,0,0,0,0,0,0,0,0,0,0,0,0,0,7,0,0,0,0,0,7,7,3,0,6,6,0,4,6,5,4,0,0,7,0,0,5,0,4,5,4,6,5,6,0,8,5,7,8,4,0,0,0,0,0,0,0,0,0,0,0,0,0,0,0,0,0,0,0,0,0,0,0,0,0,0,0,0,0,0,0,0,0,0,0,0,0,0,0,0,0,0,0,0,0,0,0,0],"split_type":[0,0,0,0,0,0,0,0,0,0,0,0,0,0,0,0,0,0,0,0,0,0,0,0,0,0,0,0,0,0,0,0,0,0,0,0,0,0,0,0,0,0,0,0,0,0,0,0,0,0,0,0,0,0,0,0,0,0,0,0,0,0,0,0,0,0,0,0,0,0,0,0,0,0,0,0,0,0,0,0,0,0,0,0,0,0,0,0,0,0,0,0,0,0,0,0,0,0,0],"sum_hessian":[5.1567612E5,3.15058E5,2.0061816E5,1.4667988E5,1.6837811E5,7.812576E4,1.224924E5,4.9481594E4,9.719828E4,1.644611E5,3.9170198E3,6.863337E4,9.492392E3,6.718532E4,5.5307074E4,3.95502E4,9.931394E3,6.4371816E4,3.282647E4,1.2827079E5,3.61903E4,1.6111313E3,2.3058884E3,5.190669E3,6.34427E4,4.0450945E3,5.447297E3,2.2321941E4,1.7228258E4,4.6686934E3,5.2627007E3,1.2575047E4,5.179677E4,2.849433E4,4.3321387E3,4.966178E4,7.860901E4,1.8895602E4,1.72947E4,7.316915E2,8.7943976E2,2.1179504E3,1.8793796E2,3.9392222E3,1.2514469E3,5.401842E4,9.424276E3,2.5528318E3,1.4922626E3,3.2712168E3,2.17608E3,1.1228815E4,1.1093126E4,1.5721693E4,1.5065638E3,4.1291294E3,5.3956384E2,4.6063228E3,6.563777E2,3.633392E3,8.941654E3,3.6650766E4,1.5146001E4,2.1345287E4,7.149043E3,1.3134397E3,3.0186987E3,3.774119E4,1.1920591E4,6.8866875E4,9.742131E3,1.1733403E4,7.1621987E3,1.4883757E4,2.4109417E3,1.1775E2,6.139415E2,2.7525E2,6.0418976E2,1.0906952E3,1.0272554E3,7.193795E1,1.16E2,3.7411582E3,1.9806384E2,9.379451E2,3.135018E2,2.060427E4,3.3414152E4,6.2123076E3,3.2119685E3,2.4433938E3,1.0943795E2,2.1606384E2,1.2761987E3,2.7068372E3,5.643795E2,2.089142E3,8.693795E1],"tree_param":{"num_deleted":"0","num_feature":"9","num_nodes":"99","size_leaf_vector":"1"}},{"base_weights":[-6.458178E-7,-1.1274769E0,1.7719374E0,-5.0886756E-1,-1.667027E0,1.6284406E0,1.863492E0,-1.682506E0,8.7532744E-2,-1.705189E0,-6.729037E-2,1.7003471E0,1.1089822E0,9.343982E-2,9.285075E-2,-1.8009509E0,-1.2112316E0,-1.3695921E-1,4.858045E-1,-1.7921897E0,-1.3970492E0,-4.8241395E-1,2.2270124E-1,1.1815563E0,1.742819E0,9.6434134E-1,1.2162309E0,-1.8385217E0,-1.7521782E0,-1.447573E0,-1.0014853E0,-5.507051E-1,-3.2031808E-2,6.6299117E-1,-7.7035093E-1,-1.6668369E0,-1.8713928E0,-1.1498137E0,-1.6673597E0,1.06730394E-1,-9.723322E-1,3.3400035E-1,-1.0284466E0,1.2905742E0,8.378409E-1,1.7829171E0,1.512958E0,8.4846324E-1,1.1619648E0,1.3434436E0,1.024564E0,-9.011305E-2,-9.375333E-2,-8.362753E-2,-8.959862E-2,-7.534655E-2,-4.9588755E-2,-5.430035E-2,-2.0399693E-2,-9.676295E-3,-3.4792494E-2,4.122272E-3,-3.3720963E-2,3.879444E-2,1.4548823E-2,-6.397229E-2,-2.7434839E-2,-9.328094E-2,-5.1920872E-2,-9.500327E-2,-8.34324E-2,-5.192828E-2,-6.659906E-2,-8.640673E-2,-6.4597435E-2,-9.447711E-2,2.455897E-2,-9.491401E-2,-2.745072E-2,4.4271577E-2,7.4485242E-3,1.8167054E-2,-9.446565E-2,6.6433184E-2,2.843826E-2,5.2851927E-2,9.062632E-3,8.691853E-2,9.051689E-2,6.899502E-2,7.7530235E-2,4.5240108E-2,-2.0281916E-2,1.8195318E-2,6.484159E-2,7.083952E-2,4.950133E-2,5.340909E-2,-1.1496152E-3],"categories":[],"categories_nodes":[],"categories_segments":[],"categories_sizes":[],"default_left":[0,0,0,0,0,0,0,0,0,0,0,0,0,0,0,0,0,0,0,0,0,0,0,0,0,0,0,0,0,0,0,0,0,0,0,0,0,0,0,0,0,0,0,0,0,0,0,0,0,0,0,0,0,0,0,0,0,0,0,0,0,0,0,0,0,0,0,0,0,0,0,0,0,0,0,0,0,0,0,0,0,0,0,0,0,0,0,0,0,0,0,0,0,0,0,0,0,0,0],"id":1,"left_children":[1,3,5,7,9,11,13,15,17,19,21,23,25,-1,-1,27,29,31,33,35,37,39,41,43,45,47,49,51,53,55,57,59,61,63,65,67,69,71,73,75,77,79,81,83,85,87,89,91,93,95,97,-1,-1,-1,-1,-1,-1,-1,-1,-1,-1,-1,-1,-1,-1,-1,-1,-1,-1,-1,-1,-1,-1,-1,-1,-1,-1,-1,-1,-1,-1,-1,-1,-1,-1,-1,-1,-1,-1,-1,-1,-1,-1,-1,-1,-1,-1,-1,-1],"loss_changes":[1.02843625E6,1.0500359E5,2.6268125E3,1.02588836E5,1.02584375E4,2.9108438E3,7.5E-1,2.7544219E3,8.688938E3,4.397375E3,4.715509E2,1.5071719E3,1.4595996E2,0E0,0E0,6.909375E1,4.9038672E2,2.6981404E3,7.7976963E3,1.2675312E3,2.4133594E3,4.6507135E2,3.2149744E2,1.9325635E2,5.8084375E2,9.1604004E1,1.313247E2,2.6140625E1,5.148047E1,1.2465918E2,2.634087E2,6.5168115E2,3.6460005E3,1.2892373E3,4.8802417E2,6.189453E3,4.526875E2,3.812168E2,3.916211E2,5.629427E2,3.437475E2,2.1603537E2,2.2671254E2,1.07447266E2,1.7995844E2,6.26875E1,4.4998047E1,1.8070825E2,1.6008862E2,8.33125E1,9.942432E1,0E0,0E0,0E0,0E0,0E0,0E0,0E0,0E0,0E0,0E0,0E0,0E0,0E0,0E0,0E0,0E0,0E0,0E0,0E0,0E0,0E0,0E0,0E0,0E0,0E0,0E0,0E0,0E0,0E0,0E0,0E0,0E0,0E0,0E0,0E0,0E0,0E0,0E0,0E0,0E0,0E0,0E0,0E0,0E0,0E0,0E0,0E0,0E0],"parents":[2147483647,0,0,1,1,2,2,3,3,4,4,5,5,6,6,7,7,8,8,9,9,10,10,11,11,12,12,15,15,16,16,17,17,18,18,19,19,20,20,21,21,22,22,23,23,24,24,25,25,26,26,27,27,28,28,29,29,30,30,31,31,32,32,33,33,34,34,35,35,36,36,37,37,38,38,39,39,40,40,41,41,42,42,43,43,44,44,45,45,46,46,47,47,48,48,49,49,50,50],"right_children":[2,4,6,8,10,12,14,16,18,20,22,24,26,-1,-1,28,30,32,34,36,38,40,42,44,46,48,50,52,54,56,58,60,62,64,66,68,70,72,74,76,78,80,82,84,86,88,90,92,94,96,98,-1,-1,-1,-1,-1,-1,-1,-1,-1,-1,-1,-1,-1,-1,-1,-1,-1,-1,-1,-1,-1,-1,-1,-1,-1,-1,-1,-1,-1,-1,-1,-1,-1,-1,-1,-1,-1,-1,-1,-1,-1,-1,-1,-1,-1,-1,-1,-1],"split_conditions":[1.1899996E1,9.644781E0,1.288173E1,8.358901E0,1.1791185E1,1.2472192E1,1.3250142E1,8.1792E0,9.248214E0,1.1085813E1,1.1836812E1,1.1996839E1,1.2643876E1,9.343982E-2,9.285075E-2,8E0,8.273847E0,8.513787E0,9.562826E0,1.0378541E1,1.1323857E1,5E0,1.2E1,1E0,1.2259769E1,7E0,5E0,7.590347E0,1E1,9E0,4E0,3E0,9.060563E0,9.475393E0,5E0,1.0284455E1,1.0977397E1,3E0,1.1718931E1,4E0,2E0,2E0,2E0,4E0,6E0,1.2115661E1,4E0,4E0,4E0,1E0,1.1E1,-9.011305E-2,-9.375333E-2,-8.362753E-2,-8.959862E-2,-7.534655E-2,-4.9588755E-2,-5.430035E-2,-2.0399693E-2,-9.676295E-3,-3.4792494E-2,4.122272E-3,-3.3720963E-2,3.879444E-2,1.4548823E-2,-6.397229E-2,-2.7434839E-2,-9.328094E-2,-5.1920872E-2,-9.500327E-2,-8.34324E-2,-5.192828E-2,-6.659906E-2,-8.640673E-2,-6.4597435E-2,-9.447711E-2,2.455897E-2,-9.491401E-2,-2.745072E-2,4.4271577E-2,7.4485242E-3,1.8167054E-2,-9.446565E-2,6.6433184E-2,2.843826E-2,5.2851927E-2,9.062632E-3,8.691853E-2,9.051689E-2,6.899502E-2,7.7530235E-2,4.5240108E-2,-2.0281916E-2,1.8195318E-2,6.484159E-2,7.083952E-2,4.950133E-2,5.340909E-2,-1.1496152E-3],"split_indices":[0,0,0,0,0,0,0,0,0,0,0,0,0,0,0,7,0,0,0,0,0,7,7,3,0,6,6,0,7,6,5,4,0,0,7,0,0,5,0,4,5,7,6,5,6,0,7,5,7,8,4,0,0,0,0,0,0,0,0,0,0,0,0,0,0,0,0,0,0,0,0,0,0,0,0,0,0,0,0,0,0,0,0,0,0,0,0,0,0,0,0,0,0,0,0,0,0,0,0],"split_type":[0,0,0,0,0,0,0,0,0,0,0,0,0,0,0,0,0,0,0,0,0,0,0,0,0,0,0,0,0,0,0,0,0,0,0,0,0,0,0,0,0,0,0,0,0,0,0,0,0,0,0,0,0,0,0,0,0,0,0,0,0,0,0,0,0,0,0,0,0,0,0,0,0,0,0,0,0,0,0,0,0,0,0,0,0,0,0,0,0,0,0,0,0,0,0,0,0,0,0],"sum_hessian":[5.147777E5,3.1459966E5,2.00178E5,1.46563E5,1.6803667E5,7.7978484E4,1.2219952E5,4.9382613E4,9.718039E4,1.6412145E5,3.9152175E3,6.849477E4,9.483707E3,6.702377E4,5.5175746E4,3.946187E4,9.920742E3,6.214952E4,3.503087E4,1.2798201E5,3.613944E4,1.6099324E3,2.305285E3,5.1853296E3,6.3309445E4,4.042194E3,5.4415127E3,2.227004E4,1.7191832E4,4.6618667E3,5.258876E3,1.2571964E4,4.9577555E4,3.0700842E4,4.330028E3,4.9562586E4,7.841942E4,1.8878104E4,1.7261336E4,7.312999E2,8.7863245E2,2.1176382E3,1.8764694E2,3.934615E3,1.2507147E3,5.3900086E4,9.409361E3,2.5514346E3,1.4907598E3,3.267082E3,2.174431E3,1.1203728E4,1.1066311E4,5.7430757E3,1.1448757E4,4.1226694E3,5.391975E2,4.602573E3,6.563023E2,3.6332986E3,8.938665E3,4.2079594E4,7.497962E3,2.355222E4,7.148622E3,1.3119568E3,3.018071E3,3.765087E4,1.1911718E4,6.869597E4,9.723457E3,1.1724667E4,7.153437E3,1.485317E4,2.408166E3,1.1746121E2,6.1383875E2,2.7456842E2,6.04064E2,5.310883E2,1.5865498E3,7.193136E1,1.1571558E2,3.7365955E3,1.9801942E2,9.372201E2,3.1349463E2,2.056136E4,3.3338727E4,2.0834163E3,7.3259453E3,2.442009E3,1.0942554E2,2.1604398E2,1.2747157E3,2.7030852E3,5.639967E2,2.087493E3,8.693792E1],"tree_param":{"num_deleted":"0","num_feature":"9","num_nodes":"99","size_leaf_vector":"1"}},{"base_weights":[-2.0990097E-7,-1.0756344E0,1.6939989E0,-4.8457247E-1,-1.5929574E0,1.5554376E0,1.782531E0,-1.607621E0,8.31966E-2,-1.6295959E0,-6.4095534E-2,1.6247406E0,1.0563381E0,8.9383736E-2,8.881255E-2,-1.7219393E0,-1.1542495E0,-1.20495126E-1,4.8306867E-1,-1.7185568E0,-1.3489089E0,-4.594413E-1,2.1167961E-1,1.1258332E0,1.6657081E0,9.1804254E-1,1.1589814E0,-1.7534245E0,-1.6672387E0,-1.3810161E0,-9.534167E-1,-4.2588836E-1,1.424279E-2,6.678611E-1,-7.328873E-1,-1.592635E0,-1.8017112E0,-1.1594167E0,-1.5928166E0,1.014076E-1,-9.2633003E-1,3.174265E-1,-9.818423E-1,1.230194E0,7.973416E-1,1.7044741E0,1.443866E0,8.0731744E-1,1.1071228E0,1.2809491E0,9.754796E-1,-8.9327395E-2,-8.463475E-2,-7.4546434E-2,-8.5653506E-2,-6.1463762E-2,-7.743018E-2,-9.467568E-2,-4.504851E-2,-2.6177203E-2,-1.26961665E-2,1.061082E-2,-1.8583236E-2,3.9956093E-2,1.3823814E-2,-6.0973484E-2,-2.6079098E-2,-8.922943E-2,-4.9430627E-2,-9.090014E-2,-8.138311E-2,-7.446804E-2,-5.2441757E-2,-8.2573414E-2,-6.1572194E-2,-9.04241E-2,2.334418E-2,-9.082836E-2,-2.6096022E-2,3.1173214E-2,-3.7881325E-4,1.727563E-2,-9.041347E-2,6.333372E-2,2.7040785E-2,5.0323505E-2,8.611507E-3,8.30685E-2,8.655102E-2,6.973415E-2,7.692941E-2,4.304893E-2,-1.9283228E-2,1.7294278E-2,6.180772E-2,6.756715E-2,4.7122072E-2,5.085491E-2,-1.0927956E-3],"categories":[],"categories_nodes":[],"categories_segments":[],"categories_sizes":[],"default_left":[0,0,0,0,0,0,0,0,0,0,0,0,0,0,0,0,0,0,0,0,0,0,0,0,0,0,0,0,0,0,0,0,0,0,0,0,0,0,0,0,0,0,0,0,0,0,0,0,0,0,0,0,0,0,0,0,0,0,0,0,0,0,0,0,0,0,0,0,0,0,0,0,0,0,0,0,0,0,0,0,0,0,0,0,0,0,0,0,0,0,0,0,0,0,0,0,0,0,0],"id":2,"left_children":[1,3,5,7,9,11,13,15,17,19,21,23,25,-1,-1,27,29,31,33,35,37,39,41,43,45,47,49,51,53,55,57,59,61,63,65,67,69,71,73,75,77,79,81,83,85,87,89,91,93,95,97,-1,-1,-1,-1,-1,-1,-1,-1,-1,-1,-1,-1,-1,-1,-1,-1,-1,-1,-1,-1,-1,-1,-1,-1,-1,-1,-1,-1,-1,-1,-1,-1,-1,-1,-1,-1,-1,-1,-1,-1,-1,-1,-1,-1,-1,-1,-1,-1],"loss_changes":[9.334223E5,9.580372E4,2.43775E3,9.324759E4,9.359094E3,2.6812812E3,7.5E-1,2.5431484E3,7.91171E3,4.0721562E3,4.26544E2,1.3902188E3,1.3322754E2,0E0,0E0,6.461719E1,4.491836E2,2.6480508E3,7.3664224E3,1.2944375E3,1.8133672E3,4.2104483E2,2.9120648E2,1.7630322E2,5.387969E2,8.358423E1,1.2019873E2,4.7007812E1,1.1337109E2,1.1618652E2,2.5710303E2,3.3070996E2,3.4116409E3,1.4617217E3,4.4406128E2,5.7126953E3,2.0864062E2,8.0500977E2,3.6185938E2,5.11239E2,3.1492432E2,2.1066682E2,2.0667043E2,9.7967285E1,1.6319379E2,5.8421875E1,4.1501953E1,1.6348022E2,1.4568579E2,7.632568E1,9.0127686E1,0E0,0E0,0E0,0E0,0E0,0E0,0E0,0E0,0E0,0E0,0E0,0E0,0E0,0E0,0E0,0E0,0E0,0E0,0E0,0E0,0E0,0E0,0E0,0E0,0E0,0E0,0E0,0E0,0E0,0E0,0E0,0E0,0E0,0E0,0E0,0E0,0E0,0E0,0E0,0E0,0E0,0E0,0E0,0E0,0E0,0E0,0E0,0E0],"parents":[2147483647,0,0,1,1,2,2,3,3,4,4,5,5,6,6,7,7,8,8,9,9,10,10,11,11,12,12,15,15,16,16,17,17,18,18,19,19,20,20,21,21,22,22,23,23,24,24,25,25,26,26,27,27,28,28,29,29,30,30,31,31,32,32,33,33,34,34,35,35,36,36,37,37,38,38,39,39,40,40,41,41,42,42,43,43,44,44,45,45,46,46,47,47,48,48,49,49,50,50],"right_children":[2,4,6,8,10,12,14,16,18,20,22,24,26,-1,-1,28,30,32,34,36,38,40,42,44,46,48,50,52,54,56,58,60,62,64,66,68,70,72,74,76,78,80,82,84,86,88,90,92,94,96,98,-1,-1,-1,-1,-1,-1,-1,-1,-1,-1,-1,-1,-1,-1,-1,-1,-1,-1,-1,-1,-1,-1,-1,-1,-1,-1,-1,-1,-1,-1,-1,-1,-1,-1,-1,-1,-1,-1,-1,-1,-1,-1,-1,-1,-1,-1,-1,-1],"split_conditions":[1.1899996E1,9.644781E0,1.288173E1,8.358901E0,1.1791185E1,1.2472192E1,1.3250142E1,8.1792E0,9.283405E0,1.1047949E1,1.1836812E1,1.1996839E1,1.2643876E1,8.9383736E-2,8.881255E-2,9E0,8.273847E0,8.583543E0,9.562826E0,1.0378541E1,1.1323857E1,5E0,1.2E1,1E0,1.2259769E1,7E0,5E0,1E0,1E1,8.227643E0,1E0,8.513787E0,8.936167E0,9.475393E0,5E0,1.0284455E1,1.0977397E1,1.1113045E1,1.1718931E1,4E0,2E0,5E0,2E0,4E0,6E0,1.2115661E1,1E0,4E0,4E0,1E0,1.1E1,-8.9327395E-2,-8.463475E-2,-7.4546434E-2,-8.5653506E-2,-6.1463762E-2,-7.743018E-2,-9.467568E-2,-4.504851E-2,-2.6177203E-2,-1.26961665E-2,1.061082E-2,-1.8583236E-2,3.9956093E-2,1.3823814E-2,-6.0973484E-2,-2.6079098E-2,-8.922943E-2,-4.9430627E-2,-9.090014E-2,-8.138311E-2,-7.446804E-2,-5.2441757E-2,-8.2573414E-2,-6.1572194E-2,-9.04241E-2,2.334418E-2,-9.082836E-2,-2.6096022E-2,3.1173214E-2,-3.7881325E-4,1.727563E-2,-9.041347E-2,6.333372E-2,2.7040785E-2,5.0323505E-2,8.611507E-3,8.30685E-2,8.655102E-2,6.973415E-2,7.692941E-2,4.304893E-2,-1.9283228E-2,1.7294278E-2,6.180772E-2,6.756715E-2,4.7122072E-2,5.085491E-2,-1.0927956E-3],"split_indices":[0,0,0,0,0,0,0,0,0,0,0,0,0,0,0,7,0,0,0,0,0,7,7,3,0,6,6,3,7,0,7,0,0,0,7,0,0,0,0,4,5,4,6,5,6,0,8,5,7,8,4,0,0,0,0,0,0,0,0,0,0,0,0,0,0,0,0,0,0,0,0,0,0,0,0,0,0,0,0,0,0,0,0,0,0,0,0,0,0,0,0,0,0,0,0,0,0,0,0],"split_type":[0,0,0,0,0,0,0,0,0,0,0,0,0,0,0,0,0,0,0,0,0,0,0,0,0,0,0,0,0,0,0,0,0,0,0,0,0,0,0,0,0,0,0,0,0,0,0,0,0,0,0,0,0,0,0,0,0,0,0,0,0,0,0,0,0,0,0,0,0,0,0,0,0,0,0,0,0,0,0,0,0,0,0,0,0,0,0,0,0,0,0,0,0,0,0,0,0,0,0],"sum_hessian":[5.1226972E5,3.1332128E5,1.9894844E5,1.4623919E5,1.6708211E5,7.756699E4,1.2138144E5,4.9105855E4,9.713333E4,1.631717E5,3.9104033E3,6.810758E4,9.459416E3,6.657253E4,5.4808906E4,3.921494E4,9.890915E3,6.435307E4,3.2780258E4,1.2389826E5,3.9273445E4,1.6065785E3,2.303825E3,5.1703955E3,6.293718E4,4.0340803E3,5.425336E3,2.486935E4,1.4345592E4,4.642758E3,5.2481577E3,1.9699826E4,4.4653242E4,2.8456143E4,4.3241143E3,4.928521E4,7.4613055E4,2.2105441E4,1.7168004E4,7.302047E2,8.763738E2,2.116992E3,1.8683296E2,3.9217292E3,1.2486661E3,5.356947E4,9.367712E3,2.5475242E3,1.4865563E3,3.2555193E3,2.1698167E3,1.6073849E4,8.795501E3,2.9666448E3,1.1378947E4,2.440951E3,2.201807E3,2.7546082E2,4.972697E3,1.2563313E4,7.1365137E3,2.9513191E4,1.5140051E4,2.1308695E4,7.147446E3,1.3078038E3,3.0163103E3,3.7398355E4,1.1886854E4,6.821819E4,6.3948633E3,5.5458193E3,1.6559621E4,1.4767611E4,2.4003938E3,1.1665347E2,6.135512E2,2.7266263E2,6.037111E2,1.0898346E3,1.0271573E3,7.1912926E1,1.14920044E2,3.723834E3,1.9789511E2,9.351915E2,3.1347458E2,2.0441465E4,3.3128004E4,6.176419E3,3.1912927E3,2.4381335E3,1.09390656E2,2.159884E2,1.2705679E3,2.6925938E3,5.6292554E2,2.082879E3,8.693783E1],"tree_param":{"num_deleted":"0","num_feature":"9","num_nodes":"99","size_leaf_vector":"1"}},{"base_weights":[1.4382964E-6,-1.0285722E0,1.6251853E0,-4.620402E-1,-1.5271219E0,1.4901868E0,1.7116334E0,-1.5409666E0,7.910046E-2,-1.5625031E0,-6.1122403E-2,1.5575144E0,1.0076543E0,8.583386E-2,8.527382E-2,-1.6440508E0,-1.0657176E0,-2.8946722E-1,2.8637326E-1,-1.6445265E0,-1.2737598E0,-4.3810672E-1,2.012739E-1,1.0744909E0,1.5973645E0,8.7496E-1,1.106289E0,-1.6522968E0,-1.368445E0,-1.3038908E0,-9.0860474E-1,-4.9783298E-1,-1.7261042E-1,3.5984465E-1,-6.9778794E-1,-1.5266114E0,-1.7192535E0,-1.0444362E0,-1.5263077E0,9.64029E-2,-8.8380927E-1,8.219491E-1,1.5194374E-2,1.1748171E0,7.595048E-1,1.6352036E0,1.3814071E0,7.915992E-1,1.1127306E0,1.2238159E0,9.2986053E-1,-8.440467E-2,-8.029485E-2,-5.4951634E-2,-9.027917E-2,-4.969195E-2,-7.410934E-2,-4.9484003E-2,-1.707339E-2,-7.888454E-3,-3.181193E-2,1.7403815E-2,-1.1338985E-2,4.670843E-3,3.177576E-2,-5.8219563E-2,-2.4798524E-2,-8.568233E-2,-4.7115374E-2,-8.732157E-2,-7.6393925E-2,-4.6867866E-2,-6.1008602E-2,-7.917016E-2,-5.8796074E-2,-8.688446E-2,2.219533E-2,-8.726408E-2,-2.481634E-2,6.850236E-2,-9.89747E-3,-2.406175E-2,1.2275431E-2,6.0495824E-2,2.572102E-2,4.7974594E-2,8.183124E-3,7.9653725E-2,8.305849E-2,6.2662065E-2,7.088601E-2,4.1737113E-2,2.682851E-3,4.994006E-2,7.535319E-2,6.4588025E-2,4.4905208E-2,3.9037477E-2,5.9965964E-2],"categories":[],"categories_nodes":[],"categories_segments":[],"categories_sizes":[],"default_left":[0,0,0,0,0,0,0,0,0,0,0,0,0,0,0,0,0,0,0,0,0,0,0,0,0,0,0,0,0,0,0,0,0,0,0,0,0,0,0,0,0,0,0,0,0,0,0,0,0,0,0,0,0,0,0,0,0,0,0,0,0,0,0,0,0,0,0,0,0,0,0,0,0,0,0,0,0,0,0,0,0,0,0,0,0,0,0,0,0,0,0,0,0,0,0,0,0,0,0],"id":3,"left_children":[1,3,5,7,9,11,13,15,17,19,21,23,25,-1,-1,27,29,31,33,35,37,39,41,43,45,47,49,51,53,55,57,59,61,63,65,67,69,71,73,75,77,79,81,83,85,87,89,91,93,95,97,-1,-1,-1,-1,-1,-1,-1,-1,-1,-1,-1,-1,-1,-1,-1,-1,-1,-1,-1,-1,-1,-1,-1,-1,-1,-1,-1,-1,-1,-1,-1,-1,-1,-1,-1,-1,-1,-1,-1,-1,-1,-1,-1,-1,-1,-1,-1,-1],"loss_changes":[8.498575E5,8.793844E4,2.297125E3,8.509066E4,8.59E3,2.4978125E3,8.125E-1,2.3831484E3,7.414925E3,3.8277812E3,3.8624936E2,1.2977656E3,1.2236133E2,0E0,0E0,8.865625E1,3.236162E2,8.505996E2,4.492313E3,1.107E3,2.0705352E3,3.8182895E2,2.6590308E2,1.6180225E2,5.07375E2,7.884912E1,1.10859375E2,6.1789062E1,1.3555786E2,1.8911719E2,2.4028955E2,5.9072314E2,6.314629E2,4.2458145E3,4.0585205E2,5.337875E3,3.981875E2,3.517754E2,3.3873047E2,4.6572958E2,2.908421E2,2.9712152E2,2.0276115E2,8.984375E1,1.4837689E2,5.5390625E1,4.1529297E1,9.488757E1,4.5295532E1,7.051221E1,8.599902E1,0E0,0E0,0E0,0E0,0E0,0E0,0E0,0E0,0E0,0E0,0E0,0E0,0E0,0E0,0E0,0E0,0E0,0E0,0E0,0E0,0E0,0E0,0E0,0E0,0E0,0E0,0E0,0E0,0E0,0E0,0E0,0E0,0E0,0E0,0E0,0E0,0E0,0E0,0E0,0E0,0E0,0E0,0E0,0E0,0E0,0E0,0E0,0E0],"parents":[2147483647,0,0,1,1,2,2,3,3,4,4,5,5,6,6,7,7,8,8,9,9,10,10,11,11,12,12,15,15,16,16,17,17,18,18,19,19,20,20,21,21,22,22,23,23,24,24,25,25,26,26,27,27,28,28,29,29,30,30,31,31,32,32,33,33,34,34,35,35,36,36,37,37,38,38,39,39,40,40,41,41,42,42,43,43,44,44,45,45,46,46,47,47,48,48,49,49,50,50],"right_children":[2,4,6,8,10,12,14,16,18,20,22,24,26,-1,-1,28,30,32,34,36,38,40,42,44,46,48,50,52,54,56,58,60,62,64,66,68,70,72,74,76,78,80,82,84,86,88,90,92,94,96,98,-1,-1,-1,-1,-1,-1,-1,-1,-1,-1,-1,-1,-1,-1,-1,-1,-1,-1,-1,-1,-1,-1,-1,-1,-1,-1,-1,-1,-1,-1,-1,-1,-1,-1,-1,-1,-1,-1,-1,-1,-1,-1,-1,-1,-1,-1,-1,-1],"split_conditions":[1.1899996E1,9.644781E0,1.288173E1,8.358901E0,1.1791185E1,1.2472192E1,1.3250142E1,8.204672E0,8.711937E0,1.1085813E1,1.1836812E1,1.1996839E1,1.2643876E1,8.583386E-2,8.527382E-2,8.1792E0,8.273847E0,8.513787E0,9.562826E0,1.0378541E1,1.1323857E1,5E0,2E0,1E0,1.2259769E1,8E0,5E0,8E0,8E0,8.227643E0,4E0,3E0,1E0,9.283405E0,5E0,1.0284455E1,1.0977397E1,3E0,1.1718931E1,4E0,2E0,4E0,2E0,4E0,6E0,1.2115661E1,4E0,4E0,1.1E1,1E0,9E0,-8.440467E-2,-8.029485E-2,-5.4951634E-2,-9.027917E-2,-4.969195E-2,-7.410934E-2,-4.9484003E-2,-1.707339E-2,-7.888454E-3,-3.181193E-2,1.7403815E-2,-1.1338985E-2,4.670843E-3,3.177576E-2,-5.8219563E-2,-2.4798524E-2,-8.568233E-2,-4.7115374E-2,-8.732157E-2,-7.6393925E-2,-4.6867866E-2,-6.1008602E-2,-7.917016E-2,-5.8796074E-2,-8.688446E-2,2.219533E-2,-8.726408E-2,-2.481634E-2,6.850236E-2,-9.89747E-3,-2.406175E-2,1.2275431E-2,6.0495824E-2,2.572102E-2,4.7974594E-2,8.183124E-3,7.9653725E-2,8.305849E-2,6.2662065E-2,7.088601E-2,4.1737113E-2,2.682851E-3,4.994006E-2,7.535319E-2,6.4588025E-2,4.4905208E-2,3.9037477E-2,5.9965964E-2],"split_indices":[0,0,0,0,0,0,0,0,0,0,0,0,0,0,0,0,0,0,0,0,0,7,7,3,0,6,6,7,7,0,5,4,7,0,7,0,0,5,0,4,5,4,5,5,6,0,7,5,4,8,4,0,0,0,0,0,0,0,0,0,0,0,0,0,0,0,0,0,0,0,0,0,0,0,0,0,0,0,0,0,0,0,0,0,0,0,0,0,0,0,0,0,0,0,0,0,0,0,0],"split_type":[0,0,0,0,0,0,0,0,0,0,0,0,0,0,0,0,0,0,0,0,0,0,0,0,0,0,0,0,0,0,0,0,0,0,0,0,0,0,0,0,0,0,0,0,0,0,0,0,0,0,0,0,0,0,0,0,0,0,0,0,0,0,0,0,0,0,0,0,0,0,0,0,0,0,0,0,0,0,0,0,0,0,0,0,0,0,0,0,0,0,0,0,0,0,0,0,0,0,0],"sum_hessian":[5.0840116E5,3.1134944E5,1.970517E5,1.4573919E5,1.6561027E5,7.693203E4,1.2011967E5,4.867971E4,9.705948E4,1.6170745E5,3.9028008E3,6.751013E4,9.421897E3,6.587657E4,5.42431E4,4.0000844E4,8.678867E3,3.493625E4,6.2123227E4,1.2592982E5,3.5777637E4,1.6014011E3,2.3013997E3,5.14733E3,6.2362805E4,4.0215447E3,5.4003525E3,3.883396E4,1.1668837E3,3.4466538E3,5.2322134E3,1.2551889E4,2.238436E4,5.780825E4,4.314974E3,4.8857242E4,7.707258E4,1.8753674E4,1.7023963E4,7.2851355E2,8.728875E2,5.3003406E2,1.7713656E3,3.9018293E3,1.2455007E3,5.3059418E4,9.303384E3,2.9808186E3,1.0407262E3,3.2376646E3,2.162688E3,2.190179E4,1.6932172E4,7.241176E2,4.4276605E2,1.2607744E3,2.1858794E3,4.577141E3,6.5507227E2,3.6314702E3,8.920418E3,2.10879E3,2.027557E4,2.939762E4,2.8410633E4,1.3013877E3,3.0135867E3,3.700882E4,1.1848424E4,6.7481234E4,9.591349E3,1.1657122E4,7.096552E3,1.4635576E4,2.3883865E3,1.154068E2,6.1310675E2,2.697222E2,6.0316534E2,3.4453574E2,1.8549835E2,5.610229E2,1.2103427E3,3.7041265E3,1.9770288E2,9.320571E2,3.1344363E2,2.0256479E4,3.280294E4,2.0618118E3,7.241572E3,2.8160498E3,1.6476869E2,8.101835E2,2.3054272E2,2.6763943E3,5.612702E2,1.3947623E3,7.6792554E2],"tree_param":{"num_deleted":"0","num_feature":"9","num_nodes":"99","size_leaf_vector":"1"}},{"base_weights":[3.979252E-6,-9.8549676E-1,1.5639166E0,-4.4100347E-1,-1.4681255E0,1.4313692E0,1.6490475E0,-1.4811862E0,7.52103E-2,-1.50248E0,-5.8272395E-2,1.4972486E0,9.622748E-1,8.270204E-2,8.214768E-2,-1.582255E0,-1.0184431E0,-2.7512938E-1,2.7234536E-1,-1.5878516E0,-1.2353649E0,-4.18206E-1,1.9140969E-1,1.0269227E0,1.5362918E0,8.345236E-1,1.0574371E0,-1.5903969E0,-1.3113505E0,-1.2492894E0,-8.6680293E-1,-4.7359705E-1,-1.6397521E-1,3.4217882E-1,-6.648075E-1,-1.4673823E0,-1.6677645E0,-1.0666621E0,-1.4818516E0,9.168569E-2,-8.4430414E-1,2.91202E-1,-9.411621E-1,1.1237183E0,7.240349E-1,1.5735298E0,1.3245155E0,7.311295E-1,1.0117873E0,1.1712458E0,8.871205E-1,-8.1286795E-2,-7.723235E-2,-5.2553575E-2,-8.6790495E-2,-4.748918E-2,-7.1110204E-2,-8.877463E-2,-4.0820077E-2,-1.2423858E-2,-3.3205565E-2,1.653731E-2,-1.0771541E-2,4.4371835E-3,3.0245403E-2,-5.567546E-2,-2.358736E-2,-8.255181E-2,-4.4953696E-2,-8.417581E-2,-7.5020574E-2,-6.852679E-2,-4.8595987E-2,-7.726181E-2,-5.6233168E-2,-8.376908E-2,2.1107694E-2,-8.413022E-2,-2.3605965E-2,-1.3639892E-2,2.2874335E-2,1.6146107E-2,-8.681677E-2,5.7881046E-2,2.447295E-2,4.5782957E-2,7.7762865E-3,7.660009E-2,7.995762E-2,6.36762E-2,7.061799E-2,4.271658E-2,1.1357848E-2,1.4032035E-2,5.683927E-2,6.1857183E-2,4.2831656E-2,4.634132E-2,-6.0418122E-3],"categories":[],"categories_nodes":[],"categories_segments":[],"categories_sizes":[],"default_left":[0,0,0,0,0,0,0,0,0,0,0,0,0,0,0,0,0,0,0,0,0,0,0,0,0,0,0,0,0,0,0,0,0,0,0,0,0,0,0,0,0,0,0,0,0,0,0,0,0,0,0,0,0,0,0,0,0,0,0,0,0,0,0,0,0,0,0,0,0,0,0,0,0,0,0,0,0,0,0,0,0,0,0,0,0,0,0,0,0,0,0,0,0,0,0,0,0,0,0],"id":4,"left_children":[1,3,5,7,9,11,13,15,17,19,21,23,25,-1,-1,27,29,31,33,35,37,39,41,43,45,47,49,51,53,55,57,59,61,63,65,67,69,71,73,75,77,79,81,83,85,87,89,91,93,95,97,-1,-1,-1,-1,-1,-1,-1,-1,-1,-1,-1,-1,-1,-1,-1,-1,-1,-1,-1,-1,-1,-1,-1,-1,-1,-1,-1,-1,-1,-1,-1,-1,-1,-1,-1,-1,-1,-1,-1,-1,-1,-1,-1,-1,-1,-1,-1,-1],"loss_changes":[7.7587025E5,8.115103E4,2.1935E3,7.791608E4,7.9289062E3,2.3506719E3,8.75E-1,2.2492812E3,6.697905E3,3.642375E3,3.5013947E2,1.2239219E3,1.1309766E2,0E0,0E0,8.503906E1,3.0102246E2,7.7029785E2,4.0617021E3,1.1634375E3,1.6081055E3,3.4676343E2,2.602844E2,1.4924902E2,4.8385938E2,7.2704346E1,1.03038574E2,5.9476562E1,1.26127075E2,1.7572949E2,2.3725415E2,5.374905E2,5.699313E2,3.8456572E3,3.7232532E2,5.040078E3,1.8935938E2,6.603926E2,3.543086E2,4.2543332E2,2.7045117E2,1.9847954E2,1.8804897E2,8.280127E1,1.3520422E2,5.33125E1,3.9504883E1,1.5717798E2,1.3436035E2,6.560547E1,8.635425E1,0E0,0E0,0E0,0E0,0E0,0E0,0E0,0E0,0E0,0E0,0E0,0E0,0E0,0E0,0E0,0E0,0E0,0E0,0E0,0E0,0E0,0E0,0E0,0E0,0E0,0E0,0E0,0E0,0E0,0E0,0E0,0E0,0E0,0E0,0E0,0E0,0E0,0E0,0E0,0E0,0E0,0E0,0E0,0E0,0E0,0E0,0E0,0E0],"parents":[2147483647,0,0,1,1,2,2,3,3,4,4,5,5,6,6,7,7,8,8,9,9,10,10,11,11,12,12,15,15,16,16,17,17,18,18,19,19,20,20,21,21,22,22,23,23,24,24,25,25,26,26,27,27,28,28,29,29,30,30,31,31,32,32,33,33,34,34,35,35,36,36,37,37,38,38,39,39,40,40,41,41,42,42,43,43,44,44,45,45,46,46,47,47,48,48,49,49,50,50],"right_children":[2,4,6,8,10,12,14,16,18,20,22,24,26,-1,-1,28,30,32,34,36,38,40,42,44,46,48,50,52,54,56,58,60,62,64,66,68,70,72,74,76,78,80,82,84,86,88,90,92,94,96,98,-1,-1,-1,-1,-1,-1,-1,-1,-1,-1,-1,-1,-1,-1,-1,-1,-1,-1,-1,-1,-1,-1,-1,-1,-1,-1,-1,-1,-1,-1,-1,-1,-1,-1,-1,-1,-1,-1,-1,-1,-1,-1,-1,-1,-1,-1,-1,-1],"split_conditions":[1.1899996E1,9.644781E0,1.288173E1,8.358901E0,1.1791185E1,1.2472192E1,1.3250142E1,8.204672E0,8.711937E0,1.1047949E1,1.1836812E1,1.1996839E1,1.2643876E1,8.270204E-2,8.214768E-2,8.1792E0,8.273847E0,8.513787E0,9.562826E0,1.0378541E1,1.1342196E1,5E0,1.2E1,1E0,1.2259769E1,7E0,5E0,8E0,8E0,8.227643E0,1E0,5E0,1E0,9.283405E0,5E0,1.0284455E1,1.0977397E1,1.1113045E1,1.1718931E1,4E0,2E0,3E0,2E0,4E0,6E0,1.2115661E1,1E1,1E1,4E0,1E0,1.3E1,-8.1286795E-2,-7.723235E-2,-5.2553575E-2,-8.6790495E-2,-4.748918E-2,-7.1110204E-2,-8.877463E-2,-4.0820077E-2,-1.2423858E-2,-3.3205565E-2,1.653731E-2,-1.0771541E-2,4.4371835E-3,3.0245403E-2,-5.567546E-2,-2.358736E-2,-8.255181E-2,-4.4953696E-2,-8.417581E-2,-7.5020574E-2,-6.852679E-2,-4.8595987E-2,-7.726181E-2,-5.6233168E-2,-8.376908E-2,2.1107694E-2,-8.413022E-2,-2.3605965E-2,-1.3639892E-2,2.2874335E-2,1.6146107E-2,-8.681677E-2,5.7881046E-2,2.447295E-2,4.5782957E-2,7.7762865E-3,7.660009E-2,7.995762E-2,6.36762E-2,7.061799E-2,4.271658E-2,1.1357848E-2,1.4032035E-2,5.683927E-2,6.1857183E-2,4.2831656E-2,4.634132E-2,-6.0418122E-3],"split_indices":[0,0,0,0,0,0,0,0,0,0,0,0,0,0,0,0,0,0,0,0,0,7,7,3,0,6,6,7,7,0,7,4,7,0,7,0,0,0,0,4,5,6,6,5,6,0,7,7,7,8,7,0,0,0,0,0,0,0,0,0,0,0,0,0,0,0,0,0,0,0,0,0,0,0,0,0,0,0,0,0,0,0,0,0,0,0,0,0,0,0,0,0,0,0,0,0,0,0,0],"split_type":[0,0,0,0,0,0,0,0,0,0,0,0,0,0,0,0,0,0,0,0,0,0,0,0,0,0,0,0,0,0,0,0,0,0,0,0,0,0,0,0,0,0,0,0,0,0,0,0,0,0,0,0,0,0,0,0,0,0,0,0,0,0,0,0,0,0,0,0,0,0,0,0,0,0,0,0,0,0,0,0,0,0,0,0,0,0,0,0,0,0,0,0,0,0,0,0,0,0,0],"sum_hessian":[5.0340544E5,3.0880934E5,1.9459608E5,1.4510562E5,1.6370372E5,7.61107E4,1.18485375E5,4.8126914E4,9.697872E4,1.598095E5,3.89422E3,6.673611E4,9.374598E3,6.4975133E4,5.351024E4,3.9497703E4,8.629212E3,3.4920016E4,6.20587E4,1.21100234E5,3.870927E4,1.5946907E3,2.2995293E3,5.1174204E3,6.1618688E4,4.0062083E3,5.368389E3,3.834054E4,1.1571644E3,3.4182576E3,5.2109546E3,1.2535107E4,2.2384908E4,5.7755582E4,4.303117E3,4.830281E4,7.279742E4,2.2983803E4,1.5725469E4,7.2632104E2,8.6836957E2,2.1140046E3,1.855247E2,3.876026E3,1.2413944E3,5.2398668E4,9.220021E3,2.5335615E3,1.4726469E3,3.2145142E3,2.153875E3,2.161202E4,1.6728518E4,7.194643E2,4.3770007E2,1.2535217E3,2.1647356E3,2.720432E2,4.938911E3,5.746774E3,6.7883335E3,2.108382E3,2.0276525E4,2.9398447E4,2.8357137E4,1.2930663E3,3.0100508E3,3.6504242E4,1.1798566E4,6.652671E4,6.2707114E3,5.4595493E3,1.7524254E4,1.3352654E4,2.3728142E3,1.1379121E2,6.1252985E2,2.6591287E2,6.024567E2,4.812098E2,1.6327948E3,7.186889E1,1.1365582E2,3.6785725E3,1.9745332E2,9.279909E2,3.1340344E2,2.0016807E4,3.238186E4,5.8435083E3,3.3765134E3,2.0353104E3,4.9825107E2,2.1548193E2,1.2571649E3,2.6553916E3,5.5912244E2,2.0723215E3,8.1553314E1],"tree_param":{"num_deleted":"0","num_feature":"9","num_nodes":"99","size_leaf_vector":"1"}},{"base_weights":[6.3474517E-6,-9.458487E-1,1.5089692E0,-4.2132026E-1,-1.414856E0,1.3779812E0,1.5934035E0,-1.4271547E0,7.152491E-2,-1.4483571E0,-5.565434E-2,1.4428198E0,9.199052E-1,7.991933E-2,7.936618E-2,-1.534981E0,-1.0080558E0,-2.615356E-1,2.590616E-1,-1.5328773E0,-1.1854535E0,-3.995694E-1,1.82017E-1,9.826303E-1,1.4813089E0,7.966106E-1,1.0119796E0,-1.5701364E0,-1.4895382E0,-1.2145007E0,-8.275394E-1,-4.5064557E-1,-1.5578274E-1,3.2544476E-1,-6.33739E-1,-1.4138527E0,-1.6120814E0,-1.020953E0,-1.4272763E0,-8.59875E-2,-2.4804705E-1,2.7681392E-1,-9.027614E-1,1.0763057E0,6.906826E-1,1.5182121E0,1.2723403E0,7.183314E-1,1.0210317E0,1.1225905E0,8.470598E-1,-7.664256E-2,-8.038953E-2,-7.536144E-2,-6.521876E-2,-6.365521E-2,-3.8437713E-2,-4.5293268E-2,-1.4149E-2,-6.877295E-3,-2.8924787E-2,1.5716055E-2,-1.023314E-2,4.2152596E-3,2.8799865E-2,-5.331251E-2,-2.2440607E-2,-7.976922E-2,-4.2927787E-2,-8.139138E-2,-7.22699E-2,-6.584158E-2,-4.645772E-2,-7.449151E-2,-5.385412E-2,1.1281336E-2,-3.3411205E-2,-1.2954975E-2,2.175015E-2,1.5358457E-2,-8.370905E-2,5.5458058E-2,2.3291258E-2,4.3730095E-2,7.389854E-3,7.3849045E-2,7.718418E-2,6.118999E-2,6.830468E-2,3.8006213E-2,3.957877E-4,4.560056E-2,7.00378E-2,5.933827E-2,4.0885422E-2,4.4401985E-2,-6.1933273E-3],"categories":[],"categories_nodes":[],"categories_segments":[],"categories_sizes":[],"default_left":[0,0,0,0,0,0,0,0,0,0,0,0,0,0,0,0,0,0,0,0,0,0,0,0,0,0,0,0,0,0,0,0,0,0,0,0,0,0,0,0,0,0,0,0,0,0,0,0,0,0,0,0,0,0,0,0,0,0,0,0,0,0,0,0,0,0,0,0,0,0,0,0,0,0,0,0,0,0,0,0,0,0,0,0,0,0,0,0,0,0,0,0,0,0,0,0,0],"id":5,"left_children":[1,3,5,7,9,11,13,15,17,19,21,23,25,-1,-1,27,29,31,33,35,37,39,41,43,45,47,49,51,53,55,57,59,61,63,65,67,69,71,73,-1,75,77,79,81,83,85,87,89,91,93,95,-1,-1,-1,-1,-1,-1,-1,-1,-1,-1,-1,-1,-1,-1,-1,-1,-1,-1,-1,-1,-1,-1,-1,-1,-1,-1,-1,-1,-1,-1,-1,-1,-1,-1,-1,-1,-1,-1,-1,-1,-1,-1,-1,-1,-1,-1],"loss_changes":[7.1000694E5,7.522528E4,2.1176875E3,7.155775E4,7.3509062E3,2.2302031E3,1.03125E0,2.1436172E3,6.0513916E3,3.499125E3,3.1757642E2,1.1643125E3,1.0498486E2,0E0,0E0,5.7984375E1,3.6111035E2,6.979026E2,3.673691E3,1.1216562E3,1.5234453E3,3.171723E2,2.3652765E2,1.382622E2,4.6642188E2,6.933838E1,9.630029E1,2.7394531E1,5.2039062E1,1.1737549E2,2.2099072E2,5.0095703E2,5.144408E2,3.4856582E3,3.4264758E2,4.8013438E3,1.855E2,6.1853516E2,3.3830664E2,0E0,2.838446E2,1.7930992E2,1.7308174E2,7.663086E1,1.234317E2,5.1929688E1,3.983789E1,8.789526E1,4.1325928E1,6.140454E1,8.542737E1,0E0,0E0,0E0,0E0,0E0,0E0,0E0,0E0,0E0,0E0,0E0,0E0,0E0,0E0,0E0,0E0,0E0,0E0,0E0,0E0,0E0,0E0,0E0,0E0,0E0,0E0,0E0,0E0,0E0,0E0,0E0,0E0,0E0,0E0,0E0,0E0,0E0,0E0,0E0,0E0,0E0,0E0,0E0,0E0,0E0,0E0],"parents":[2147483647,0,0,1,1,2,2,3,3,4,4,5,5,6,6,7,7,8,8,9,9,10,10,11,11,12,12,15,15,16,16,17,17,18,18,19,19,20,20,21,21,22,22,23,23,24,24,25,25,26,26,27,27,28,28,29,29,30,30,31,31,32,32,33,33,34,34,35,35,36,36,37,37,38,38,40,40,41,41,42,42,43,43,44,44,45,45,46,46,47,47,48,48,49,49,50,50],"right_children":[2,4,6,8,10,12,14,16,18,20,22,24,26,-1,-1,28,30,32,34,36,38,40,42,44,46,48,50,52,54,56,58,60,62,64,66,68,70,72,74,-1,76,78,80,82,84,86,88,90,92,94,96,-1,-1,-1,-1,-1,-1,-1,-1,-1,-1,-1,-1,-1,-1,-1,-1,-1,-1,-1,-1,-1,-1,-1,-1,-1,-1,-1,-1,-1,-1,-1,-1,-1,-1,-1,-1,-1,-1,-1,-1,-1,-1,-1,-1,-1,-1],"split_conditions":[1.1899996E1,9.644781E0,1.288173E1,8.358901E0,1.1791185E1,1.2472192E1,1.3250142E1,8.1792E0,8.711937E0,1.1047949E1,1.1836812E1,1.1996839E1,1.2643876E1,7.991933E-2,7.936618E-2,8E0,8.273847E0,8.513787E0,9.562826E0,1.0378541E1,1.1342196E1,2E0,1.2E1,1E0,1.2259769E1,8E0,5E0,7.590347E0,1.1E1,9E0,4E0,3E0,1E0,9.283405E0,5E0,1.0284455E1,1.0977397E1,1.1113045E1,1.1718931E1,-8.59875E-2,5E0,3E0,2E0,4E0,6E0,1.2115661E1,1E0,4E0,1.1E1,1E0,1.1E1,-7.664256E-2,-8.038953E-2,-7.536144E-2,-6.521876E-2,-6.365521E-2,-3.8437713E-2,-4.5293268E-2,-1.4149E-2,-6.877295E-3,-2.8924787E-2,1.5716055E-2,-1.023314E-2,4.2152596E-3,2.8799865E-2,-5.331251E-2,-2.2440607E-2,-7.976922E-2,-4.2927787E-2,-8.139138E-2,-7.22699E-2,-6.584158E-2,-4.645772E-2,-7.449151E-2,-5.385412E-2,1.1281336E-2,-3.3411205E-2,-1.2954975E-2,2.175015E-2,1.5358457E-2,-8.370905E-2,5.5458058E-2,2.3291258E-2,4.3730095E-2,7.389854E-3,7.3849045E-2,7.718418E-2,6.118999E-2,6.830468E-2,3.8006213E-2,3.957877E-4,4.560056E-2,7.00378E-2,5.933827E-2,4.0885422E-2,4.4401985E-2,-6.1933273E-3],"split_indices":[0,0,0,0,0,0,0,0,0,0,0,0,0,0,0,7,0,0,0,0,0,4,7,3,0,6,6,0,4,6,5,4,7,0,7,0,0,0,0,0,7,6,6,5,6,0,8,5,4,8,4,0,0,0,0,0,0,0,0,0,0,0,0,0,0,0,0,0,0,0,0,0,0,0,0,0,0,0,0,0,0,0,0,0,0,0,0,0,0,0,0,0,0,0,0,0,0],"split_type":[0,0,0,0,0,0,0,0,0,0,0,0,0,0,0,0,0,0,0,0,0,0,0,0,0,0,0,0,0,0,0,0,0,0,0,0,0,0,0,0,0,0,0,0,0,0,0,0,0,0,0,0,0,0,0,0,0,0,0,0,0,0,0,0,0,0,0,0,0,0,0,0,0,0,0,0,0,0,0,0,0,0,0,0,0,0,0,0,0,0,0,0,0,0,0,0,0],"sum_hessian":[4.9745947E5,3.0578578E5,1.9167369E5,1.4434975E5,1.6143603E5,7.51329E4,1.165408E5,4.7469215E4,9.688054E4,1.5755266E5,3.8833713E3,6.5814945E4,9.317954E3,6.3902574E4,5.2638223E4,3.775333E4,9.715888E3,3.48995E4,6.1981043E4,1.19220086E5,3.8332566E4,1.5867018E3,2.2966694E3,5.081796E3,6.0733145E4,3.9877327E3,5.3302217E3,2.1267143E4,1.6486184E4,4.5297637E3,5.186124E3,1.2515572E4,2.2383926E4,5.769205E4,4.28899E3,4.7643004E4,7.1577086E4,2.2816693E4,1.5515875E4,1.622967E2,1.424405E3,2.112782E3,1.8388757E2,3.8452942E3,1.236502E3,5.161234E4,9.120807E3,2.959608E3,1.0281248E3,3.186945E3,2.1432769E3,1.0706861E4,1.056028E4,1.5041931E4,1.4442535E3,4.001782E3,5.279816E2,4.533405E3,6.5271954E2,3.6294004E3,8.886172E3,2.107699E3,2.0276227E4,2.9398938E4,2.8293113E4,1.283154E3,3.0058362E3,3.5903836E4,1.1739165E4,6.5391004E4,6.186079E3,5.399644E3,1.7417049E4,1.3161609E4,2.3542659E3,6.6979504E2,7.5461E2,4.8136703E2,1.6314149E3,7.182918E1,1.120584E2,3.6481382E3,1.971558E2,9.231464E2,3.1335556E2,1.9731562E4,3.1880777E4,6.0186978E3,3.1021091E3,2.7951057E3,1.6450217E2,8.0143176E2,2.2669298E2,2.6303816E3,5.5656335E2,2.056561E3,8.671579E1],"tree_param":{"num_deleted":"0","num_feature":"9","num_nodes":"97","size_leaf_vector":"1"}},{"base_weights":[9.606472E-6,-9.0913624E-1,1.4593571E0,-4.0283898E-1,-1.3664122E0,1.3291943E0,1.5436146E0,-1.3779947E0,6.803153E-2,-1.3992367E0,-5.309649E-2,1.3933288E0,8.80177E-1,7.74311E-2,7.687538E-2,-1.4850471E0,-9.658397E-1,-2.4864806E-1,2.4647076E-1,-1.4834021E0,-1.1392154E0,-3.8114557E-1,1.7313184E-1,9.4120246E-1,1.4314731E0,7.608745E-1,9.695392E-1,-1.5155241E0,-1.4323573E0,-1.1673589E0,-7.906595E-1,-4.2892593E-1,-1.480084E-1,3.0957994E-1,-6.044044E-1,-1.3651434E0,-1.5623875E0,-9.6819836E-1,-1.364127E0,-8.30251E-2,-2.36237E-1,7.5343454E-1,-3.8261613E-4,1.0320932E0,6.592368E-1,1.4682598E0,1.2242042E0,6.69805E-1,9.4370264E-1,1.0773177E0,8.095E-1,-7.747928E-2,-7.2658814E-2,-6.2582046E-2,-7.397586E-2,-6.122867E-2,-3.6742892E-2,-8.399151E-2,-3.709346E-2,-1.1071318E-2,-3.0256776E-2,1.4937266E-2,-9.722177E-3,4.0044766E-3,2.7432242E-2,-5.110714E-2,-2.1353723E-2,-7.728009E-2,-4.102271E-2,-7.891172E-2,-6.976723E-2,-6.3372545E-2,-4.3483634E-2,-7.095708E-2,-5.1634815E-2,1.0722675E-2,-3.187267E-2,6.401274E-2,-1.0974261E-2,-2.349764E-2,1.0874604E-2,4.593816E-2,6.0225245E-2,5.1168855E-2,2.0046001E-2,7.135371E-2,7.468704E-2,5.4925334E-2,6.299805E-2,-2.1478849E-2,3.7748396E-2,6.1966058E-2,4.0854275E-2,5.700153E-2,3.905307E-2,3.3125736E-2,5.3775966E-2],"categories":[],"categories_nodes":[],"categories_segments":[],"categories_sizes":[],"default_left":[0,0,0,0,0,0,0,0,0,0,0,0,0,0,0,0,0,0,0,0,0,0,0,0,0,0,0,0,0,0,0,0,0,0,0,0,0,0,0,0,0,0,0,0,0,0,0,0,0,0,0,0,0,0,0,0,0,0,0,0,0,0,0,0,0,0,0,0,0,0,0,0,0,0,0,0,0,0,0,0,0,0,0,0,0,0,0,0,0,0,0,0,0,0,0,0,0],"id":6,"left_children":[1,3,5,7,9,11,13,15,17,19,21,23,25,-1,-1,27,29,31,33,35,37,39,41,43,45,47,49,51,53,55,57,59,61,63,65,67,69,71,73,-1,75,77,79,81,83,85,87,89,91,93,95,-1,-1,-1,-1,-1,-1,-1,-1,-1,-1,-1,-1,-1,-1,-1,-1,-1,-1,-1,-1,-1,-1,-1,-1,-1,-1,-1,-1,-1,-1,-1,-1,-1,-1,-1,-1,-1,-1,-1,-1,-1,-1,-1,-1,-1,-1],"loss_changes":[6.510834E5,7.000216E4,2.0638125E3,6.588777E4,6.8488438E3,2.1305703E3,1.125E0,2.060211E3,5.4682227E3,3.3904062E3,2.8764783E2,1.1157266E3,9.792822E1,0E0,0E0,5.7382812E1,3.3928125E2,6.326826E2,3.3237463E3,1.0916094E3,1.4567188E3,2.9287714E2,2.3099805E2,1.2854785E2,4.5364844E2,6.543652E1,9.0333984E1,4.761328E1,1.1414258E2,1.0994629E2,2.2254346E2,4.5667725E2,4.643874E2,3.1611963E3,3.161698E2,4.608453E3,1.8360938E2,6.3389453E2,2.970332E2,0E0,2.572919E2,2.7094287E2,1.8088582E2,7.3367676E1,1.1547211E2,5.109375E1,3.9109375E1,2.4863538E2,4.8279785E1,5.775879E1,8.2648926E1,0E0,0E0,0E0,0E0,0E0,0E0,0E0,0E0,0E0,0E0,0E0,0E0,0E0,0E0,0E0,0E0,0E0,0E0,0E0,0E0,0E0,0E0,0E0,0E0,0E0,0E0,0E0,0E0,0E0,0E0,0E0,0E0,0E0,0E0,0E0,0E0,0E0,0E0,0E0,0E0,0E0,0E0,0E0,0E0,0E0,0E0],"parents":[2147483647,0,0,1,1,2,2,3,3,4,4,5,5,6,6,7,7,8,8,9,9,10,10,11,11,12,12,15,15,16,16,17,17,18,18,19,19,20,20,21,21,22,22,23,23,24,24,25,25,26,26,27,27,28,28,29,29,30,30,31,31,32,32,33,33,34,34,35,35,36,36,37,37,38,38,40,40,41,41,42,42,43,43,44,44,45,45,46,46,47,47,48,48,49,49,50,50],"right_children":[2,4,6,8,10,12,14,16,18,20,22,24,26,-1,-1,28,30,32,34,36,38,40,42,44,46,48,50,52,54,56,58,60,62,64,66,68,70,72,74,-1,76,78,80,82,84,86,88,90,92,94,96,-1,-1,-1,-1,-1,-1,-1,-1,-1,-1,-1,-1,-1,-1,-1,-1,-1,-1,-1,-1,-1,-1,-1,-1,-1,-1,-1,-1,-1,-1,-1,-1,-1,-1,-1,-1,-1,-1,-1,-1,-1,-1,-1,-1,-1,-1],"split_conditions":[1.1899996E1,9.644781E0,1.288173E1,8.358901E0,1.1791185E1,1.2472192E1,1.3250142E1,8.1792E0,8.711937E0,1.1047949E1,1.1836812E1,1.1996839E1,1.2643876E1,7.74311E-2,7.687538E-2,9E0,8.273847E0,8.513787E0,9.562826E0,1.0378541E1,1.1323857E1,2E0,2E0,1E0,1.2259769E1,1E0,5E0,1E0,1E1,9E0,1E0,5E0,1E0,9.283405E0,5E0,1.0284455E1,1.0977397E1,1.1113045E1,1.1718931E1,-8.30251E-2,5E0,4E0,2E0,1E1,3E0,1.2115661E1,4E0,2E0,3E0,1E0,9E0,-7.747928E-2,-7.2658814E-2,-6.2582046E-2,-7.397586E-2,-6.122867E-2,-3.6742892E-2,-8.399151E-2,-3.709346E-2,-1.1071318E-2,-3.0256776E-2,1.4937266E-2,-9.722177E-3,4.0044766E-3,2.7432242E-2,-5.110714E-2,-2.1353723E-2,-7.728009E-2,-4.102271E-2,-7.891172E-2,-6.976723E-2,-6.3372545E-2,-4.3483634E-2,-7.095708E-2,-5.1634815E-2,1.0722675E-2,-3.187267E-2,6.401274E-2,-1.0974261E-2,-2.349764E-2,1.0874604E-2,4.593816E-2,6.0225245E-2,5.1168855E-2,2.0046001E-2,7.135371E-2,7.468704E-2,5.4925334E-2,6.299805E-2,-2.1478849E-2,3.7748396E-2,6.1966058E-2,4.0854275E-2,5.700153E-2,3.905307E-2,3.3125736E-2,5.3775966E-2],"split_indices":[0,0,0,0,0,0,0,0,0,0,0,0,0,0,0,7,0,0,0,0,0,4,7,3,0,8,6,3,7,6,7,4,7,0,7,0,0,0,0,0,7,4,5,7,6,0,7,7,7,8,4,0,0,0,0,0,0,0,0,0,0,0,0,0,0,0,0,0,0,0,0,0,0,0,0,0,0,0,0,0,0,0,0,0,0,0,0,0,0,0,0,0,0,0,0,0,0],"split_type":[0,0,0,0,0,0,0,0,0,0,0,0,0,0,0,0,0,0,0,0,0,0,0,0,0,0,0,0,0,0,0,0,0,0,0,0,0,0,0,0,0,0,0,0,0,0,0,0,0,0,0,0,0,0,0,0,0,0,0,0,0,0,0,0,0,0,0,0,0,0,0,0,0,0,0,0,0,0,0,0,0,0,0,0,0,0,0,0,0,0,0,0,0,0,0,0,0],"sum_hessian":[4.9072994E5,3.0236356E5,1.8836639E5,1.4349138E5,1.588722E5,7.402603E4,1.1434035E5,4.6724566E4,9.6766805E4,1.5499816E5,3.8740352E3,6.4772297E4,9.253737E3,6.2688895E4,5.1651457E4,3.708862E4,9.635943E3,3.4874305E4,6.18925E4,1.1709226E5,3.7905906E4,1.580908E3,2.2931272E3,5.0414517E3,5.9730848E4,3.9670554E3,5.286682E3,2.347965E4,1.3608973E4,4.4784634E3,5.1574805E3,1.249267E4,2.2381635E4,5.761951E4,4.272988E3,4.6896293E4,7.019596E4,2.1535883E4,1.6370022E4,1.5978174E2,1.4211262E3,5.270652E2,1.766062E3,3.8104917E3,1.2309597E3,5.072242E4,9.008423E3,2.651143E3,1.3159122E3,3.155725E3,2.130957E3,1.5168857E4,8.310793E3,2.8221326E3,1.078684E4,3.9536177E3,5.248454E2,2.6653976E2,4.8909404E3,5.7380073E3,6.754662E3,2.1067832E3,2.0274852E4,2.9399137E4,2.8220375E4,1.2719275E3,3.00106E3,3.5224418E4,1.1671872E4,6.4105914E4,6.090048E3,5.3312866E3,1.6204597E4,1.4036764E4,2.3332588E3,6.695168E2,7.516095E2,3.4171576E2,1.8534944E2,5.593585E2,1.2067035E3,2.3030051E3,1.5074867E3,5.0961346E2,7.2134625E2,1.9408715E4,3.1313709E4,2.0020911E3,7.0063315E3,1.9031337E2,2.4608298E3,3.9197153E2,9.2394073E2,2.602061E3,5.5366406E2,1.3748134E3,7.561437E2],"tree_param":{"num_deleted":"0","num_feature":"9","num_nodes":"97","size_leaf_vector":"1"}},{"base_weights":[1.3355295E-5,-8.749589E-1,1.4142665E0,-3.811176E-1,-1.3182294E0,1.2842932E0,1.4988075E0,-1.3329741E0,7.723423E-2,-1.3501431E0,-5.0603453E-2,1.34802E0,8.426843E-1,7.5193405E-2,7.4631885E-2,-1.4397717E0,-9.2619014E-1,-9.341466E-2,4.297837E-1,-1.427624E0,-1.0813586E0,-3.637406E-1,1.647453E-1,9.0210485E-1,1.386017E0,7.269944E-1,9.2964077E-1,-1.4753325E0,-1.3939722E0,-1.1234901E0,-7.5581145E-1,-3.3611947E-1,1.3149048E-2,6.0895807E-1,-1.3728803E-1,-1.3047174E0,-1.5054405E0,-8.5737926E-1,-1.3037722E0,-8.039144E-2,-2.2503315E-1,2.5423422E-1,-8.685326E-1,9.905243E-1,6.29276E-1,1.422872E0,1.1795325E0,6.2828815E-1,8.975046E-1,1.0349879E0,7.7395284E-1,-7.1862765E-2,-7.569281E-2,-7.059319E-2,-6.0368385E-2,-5.8977377E-2,-3.513753E-2,-1.6799686E-2,-4.2800482E-2,-1.2478272E-2,-2.5731636E-2,1.0498726E-2,-1.8520825E-2,3.250077E-2,1.3780628E-2,3.5461762E-3,-2.2743268E-2,-7.386604E-2,-3.559417E-2,-7.659223E-2,-6.596863E-2,-3.75496E-2,-5.1633276E-2,-6.760537E-2,-4.955519E-2,1.0192065E-2,-3.0414967E-2,2.6183397E-2,-1.4976779E-3,1.438043E-2,-8.089915E-2,5.1151205E-2,1.9745719E-2,4.017786E-2,6.0276096E-3,6.907603E-2,7.242492E-2,5.6564E-2,6.365128E-2,3.7376996E-2,7.1337856E-3,9.799264E-3,5.0968613E-2,5.4822486E-2,3.7323188E-2,4.0712547E-2,-8.567079E-3],"categories":[],"categories_nodes":[],"categories_segments":[],"categories_sizes":[],"default_left":[0,0,0,0,0,0,0,0,0,0,0,0,0,0,0,0,0,0,0,0,0,0,0,0,0,0,0,0,0,0,0,0,0,0,0,0,0,0,0,0,0,0,0,0,0,0,0,0,0,0,0,0,0,0,0,0,0,0,0,0,0,0,0,0,0,0,0,0,0,0,0,0,0,0,0,0,0,0,0,0,0,0,0,0,0,0,0,0,0,0,0,0,0,0,0,0,0],"id":7,"left_children":[1,3,5,7,9,11,13,15,17,19,21,23,25,-1,-1,27,29,31,33,35,37,39,41,43,45,47,49,51,53,55,57,59,61,63,65,67,69,71,73,-1,75,77,79,81,83,85,87,89,91,93,95,-1,-1,-1,-1,-1,-1,-1,-1,-1,-1,-1,-1,-1,-1,-1,-1,-1,-1,-1,-1,-1,-1,-1,-1,-1,-1,-1,-1,-1,-1,-1,-1,-1,-1,-1,-1,-1,-1,-1,-1,-1,-1,-1,-1,-1,-1],"loss_changes":[5.98133E5,6.5368406E4,2.0280938E3,6.1626555E4,6.366125E3,2.0481016E3,1.25E0,1.9931875E3,5.736089E3,3.1951875E3,2.6072998E2,1.0769141E3,9.172998E1,0E0,0E0,5.715625E1,3.2017188E2,1.6616414E3,3.1597607E3,1.1376094E3,1.7101523E3,2.7150735E2,2.1207263E2,1.19977295E2,4.4452344E2,6.585132E1,8.514795E1,2.7828125E1,5.141797E1,1.0349512E2,2.1540259E2,3.027422E2,3.3706033E3,3.2324414E2,4.9380188E2,4.7263438E3,3.56375E2,3.1845508E2,2.591172E2,0E0,2.3330276E2,1.6152219E2,1.5888808E2,7.2649414E1,1.0863565E2,5.0710938E1,3.8648438E1,1.4482166E2,1.2329285E2,5.455371E1,8.0854004E1,0E0,0E0,0E0,0E0,0E0,0E0,0E0,0E0,0E0,0E0,0E0,0E0,0E0,0E0,0E0,0E0,0E0,0E0,0E0,0E0,0E0,0E0,0E0,0E0,0E0,0E0,0E0,0E0,0E0,0E0,0E0,0E0,0E0,0E0,0E0,0E0,0E0,0E0,0E0,0E0,0E0,0E0,0E0,0E0,0E0,0E0],"parents":[2147483647,0,0,1,1,2,2,3,3,4,4,5,5,6,6,7,7,8,8,9,9,10,10,11,11,12,12,15,15,16,16,17,17,18,18,19,19,20,20,21,21,22,22,23,23,24,24,25,25,26,26,27,27,28,28,29,29,30,30,31,31,32,32,33,33,34,34,35,35,36,36,37,37,38,38,40,40,41,41,42,42,43,43,44,44,45,45,46,46,47,47,48,48,49,49,50,50],"right_children":[2,4,6,8,10,12,14,16,18,20,22,24,26,-1,-1,28,30,32,34,36,38,40,42,44,46,48,50,52,54,56,58,60,62,64,66,68,70,72,74,-1,76,78,80,82,84,86,88,90,92,94,96,-1,-1,-1,-1,-1,-1,-1,-1,-1,-1,-1,-1,-1,-1,-1,-1,-1,-1,-1,-1,-1,-1,-1,-1,-1,-1,-1,-1,-1,-1,-1,-1,-1,-1,-1,-1,-1,-1,-1,-1,-1,-1,-1,-1,-1,-1],"split_conditions":[1.1899996E1,9.617471E0,1.288173E1,8.358901E0,1.1791185E1,1.2472192E1,1.3250142E1,8.1792E0,9.283405E0,1.1085813E1,1.1836812E1,1.1996839E1,1.2643876E1,7.5193405E-2,7.4631885E-2,8E0,8.273847E0,8.583543E0,9.505395E0,1.0367661E1,1.1305987E1,2E0,1.2E1,1E0,1.2259769E1,7E0,5E0,7.590347E0,1.1E1,9E0,2E0,1E0,8.936167E0,9.475393E0,9.562826E0,1.0284455E1,1.0977397E1,3E0,1.1718931E1,-8.039144E-2,5E0,5E0,2E0,4E0,6E0,1.2115661E1,1E0,1E1,4E0,1E0,1.1E1,-7.1862765E-2,-7.569281E-2,-7.059319E-2,-6.0368385E-2,-5.8977377E-2,-3.513753E-2,-1.6799686E-2,-4.2800482E-2,-1.2478272E-2,-2.5731636E-2,1.0498726E-2,-1.8520825E-2,3.250077E-2,1.3780628E-2,3.5461762E-3,-2.2743268E-2,-7.386604E-2,-3.559417E-2,-7.659223E-2,-6.596863E-2,-3.75496E-2,-5.1633276E-2,-6.760537E-2,-4.955519E-2,1.0192065E-2,-3.0414967E-2,2.6183397E-2,-1.4976779E-3,1.438043E-2,-8.089915E-2,5.1151205E-2,1.9745719E-2,4.017786E-2,6.0276096E-3,6.907603E-2,7.242492E-2,5.6564E-2,6.365128E-2,3.7376996E-2,7.1337856E-3,9.799264E-3,5.0968613E-2,5.4822486E-2,3.7323188E-2,4.0712547E-2,-8.567079E-3],"split_indices":[0,0,0,0,0,0,0,0,0,0,0,0,0,0,0,7,0,0,0,0,0,4,7,3,0,6,6,0,4,6,4,3,0,0,0,0,0,5,0,0,7,4,6,5,6,0,8,7,7,8,4,0,0,0,0,0,0,0,0,0,0,0,0,0,0,0,0,0,0,0,0,0,0,0,0,0,0,0,0,0,0,0,0,0,0,0,0,0,0,0,0,0,0,0,0,0,0],"split_type":[0,0,0,0,0,0,0,0,0,0,0,0,0,0,0,0,0,0,0,0,0,0,0,0,0,0,0,0,0,0,0,0,0,0,0,0,0,0,0,0,0,0,0,0,0,0,0,0,0,0,0,0,0,0,0,0,0,0,0,0,0,0,0,0,0,0,0,0,0,0,0,0,0,0,0,0,0,0,0,0,0,0,0,0,0,0,0,0,0,0,0,0,0,0,0,0,0],"sum_hessian":[4.833643E5,2.986163E5,1.84748E5,1.4125169E5,1.5736461E5,7.281635E4,1.1193165E5,4.5909598E4,9.534209E4,1.5350003E5,3.8645757E3,6.3631844E4,9.184509E3,6.136036E4,5.0571285E4,3.6360844E4,9.548755E3,6.424535E4,3.1096738E4,1.19149266E5,3.435077E4,1.5744662E3,2.2901096E3,4.998342E3,5.86335E4,3.9451294E3,5.2393794E3,2.0450697E4,1.5910146E4,4.4222075E3,5.1265474E3,1.9600947E4,4.4644406E4,2.3630328E4,7.4664106E3,4.619873E4,7.295053E4,1.7117562E4,1.7233205E4,1.5687138E2,1.4175948E3,2.1082727E3,1.8183684E2,3.772957E3,1.2253848E3,4.9748156E4,8.885344E3,2.5016433E3,1.4434858E3,3.1215293E3,2.1178503E3,1.0304195E4,1.0146502E4,1.4512161E4,1.3979856E3,3.900693E3,5.215146E2,9.886372E2,4.13791E3,1.3202145E4,6.398802E3,2.9504643E4,1.5139764E4,2.1038164E4,2.5921655E3,4.510193E3,2.9562178E3,3.5779926E4,1.0418807E4,6.3878586E4,9.07195E3,1.0655601E4,6.4619624E3,1.4922958E4,2.3102468E3,6.692136E2,7.483812E2,1.0817966E3,1.0264761E3,7.1756996E1,1.1007984E2,3.5770554E3,1.9590155E2,9.122738E2,3.1311102E2,1.9055244E4,3.0692914E4,5.869266E3,3.0160776E3,2.008E3,4.9364343E2,2.140331E2,1.2294528E3,2.5710422E3,5.504871E2,2.0313904E3,8.645984E1],"tree_param":{"num_deleted":"0","num_feature":"9","num_nodes":"97","size_leaf_vector":"1"}},{"base_weights":[1.9581266E-5,-8.429672E-1,1.3730811E0,-3.6870578E-1,-1.2814665E0,1.2428048E0,1.4582711E0,-1.2914858E0,6.1998587E-2,-1.3133065E0,-4.831417E-2,1.3063366E0,8.0741125E-1,7.317055E-2,7.260036E-2,-1.3984796E0,-8.8876855E-1,-2.3170616E-1,2.2784686E-1,-1.3980432E0,-1.0556706E0,-3.4726518E-1,1.567793E-1,8.6542255E-1,1.344313E0,6.9513106E-1,8.9210504E-1,-1.4344355E0,-1.352275E0,-1.0824621E0,-7.2273254E-1,-3.9205015E-1,-1.4248757E-1,2.8453925E-1,-5.41263E-1,-1.2798759E0,-1.4776846E0,-8.9876467E-1,-1.2915909E0,-7.803675E-2,-2.1439455E-1,7.04107E-1,-6.028956E-3,9.5155835E-1,6.011198E-1,1.3813934E0,1.1378596E0,6.2016475E-1,9.118892E-1,9.95234E-1,7.404512E-1,-6.9813274E-2,-7.365584E-2,-6.354937E-2,-6.9656074E-2,-4.693578E-2,-6.2165406E-2,-8.00374E-2,-3.3763573E-2,-5.15349E-3,-2.553527E-2,1.412025E-2,-9.331413E-3,4.027705E-3,2.4913415E-2,-4.742544E-2,-1.8531913E-2,-7.304586E-2,-3.7505347E-2,-7.469648E-2,-6.54115E-2,-5.9133153E-2,-4.0611096E-2,-6.768924E-2,-4.759849E-2,9.688011E-3,-2.9031698E-2,6.0223557E-2,-1.0460175E-2,-2.2513382E-2,1.0006419E-2,5.3193297E-2,3.9012197E-2,4.7369532E-2,1.7892223E-2,6.698484E-2,7.03641E-2,5.433462E-2,6.131939E-2,3.304997E-2,-3.301977E-3,3.3930715E-2,5.447021E-2,5.2780747E-2,3.5686042E-2,3.8977325E-2,-1.2144202E-2],"categories":[],"categories_nodes":[],"categories_segments":[],"categories_sizes":[],"default_left":[0,0,0,0,0,0,0,0,0,0,0,0,0,0,0,0,0,0,0,0,0,0,0,0,0,0,0,0,0,0,0,0,0,0,0,0,0,0,0,0,0,0,0,0,0,0,0,0,0,0,0,0,0,0,0,0,0,0,0,0,0,0,0,0,0,0,0,0,0,0,0,0,0,0,0,0,0,0,0,0,0,0,0,0,0,0,0,0,0,0,0,0,0,0,0,0,0],"id":8,"left_children":[1,3,5,7,9,11,13,15,17,19,21,23,25,-1,-1,27,29,31,33,35,37,39,41,43,45,47,49,51,53,55,57,59,61,63,65,67,69,71,73,-1,75,77,79,81,83,85,87,89,91,93,95,-1,-1,-1,-1,-1,-1,-1,-1,-1,-1,-1,-1,-1,-1,-1,-1,-1,-1,-1,-1,-1,-1,-1,-1,-1,-1,-1,-1,-1,-1,-1,-1,-1,-1,-1,-1,-1,-1,-1,-1,-1,-1,-1,-1,-1,-1],"loss_changes":[5.503684E5,6.1268453E4,2.0055938E3,5.6253258E4,6.010328E3,1.9773125E3,1.40625E0,1.9394531E3,4.7005176E3,3.2562812E3,2.3635645E2,1.0438906E3,8.601074E1,0E0,0E0,5.7171875E1,3.033589E2,4.9814954E2,2.6892786E3,1.054875E3,1.3661484E3,2.525617E2,2.0375604E2,1.1216846E2,4.383125E2,6.3158325E1,8.042432E1,2.7464844E1,4.9992188E1,9.970947E1,2.1123975E2,4.268329E2,4.1973648E2,2.504207E3,2.9387415E2,4.3356797E3,1.826875E2,5.441504E2,3.1029492E2,0E0,2.1160968E2,2.3981735E2,1.615791E2,7.099707E1,1.0242636E2,5.06875E1,3.8323242E1,8.177893E1,4.0903503E1,5.170166E1,8.109094E1,0E0,0E0,0E0,0E0,0E0,0E0,0E0,0E0,0E0,0E0,0E0,0E0,0E0,0E0,0E0,0E0,0E0,0E0,0E0,0E0,0E0,0E0,0E0,0E0,0E0,0E0,0E0,0E0,0E0,0E0,0E0,0E0,0E0,0E0,0E0,0E0,0E0,0E0,0E0,0E0,0E0,0E0,0E0,0E0,0E0,0E0],"parents":[2147483647,0,0,1,1,2,2,3,3,4,4,5,5,6,6,7,7,8,8,9,9,10,10,11,11,12,12,15,15,16,16,17,17,18,18,19,19,20,20,21,21,22,22,23,23,24,24,25,25,26,26,27,27,28,28,29,29,30,30,31,31,32,32,33,33,34,34,35,35,36,36,37,37,38,38,40,40,41,41,42,42,43,43,44,44,45,45,46,46,47,47,48,48,49,49,50,50],"right_children":[2,4,6,8,10,12,14,16,18,20,22,24,26,-1,-1,28,30,32,34,36,38,40,42,44,46,48,50,52,54,56,58,60,62,64,66,68,70,72,74,-1,76,78,80,82,84,86,88,90,92,94,96,-1,-1,-1,-1,-1,-1,-1,-1,-1,-1,-1,-1,-1,-1,-1,-1,-1,-1,-1,-1,-1,-1,-1,-1,-1,-1,-1,-1,-1,-1,-1,-1,-1,-1,-1,-1,-1,-1,-1,-1,-1,-1,-1,-1,-1,-1],"split_conditions":[1.1899996E1,9.644781E0,1.288173E1,8.358901E0,1.1791185E1,1.2472192E1,1.3250142E1,8.1792E0,8.711937E0,1.1047949E1,1.1836812E1,1.1996839E1,1.2643876E1,7.317055E-2,7.260036E-2,8E0,8.273847E0,8.513787E0,9.562826E0,1.0378541E1,1.1342196E1,2E0,2E0,1E0,1.2259769E1,8E0,5E0,7.590347E0,1E1,8.227643E0,1E0,3E0,1E0,9.283405E0,5E0,1.0284455E1,1.0977397E1,1.1113045E1,1.1718931E1,-7.803675E-2,5E0,4E0,2E0,5E0,3E0,1.2115661E1,1E1,4E0,7E0,1E0,1.3E1,-6.9813274E-2,-7.365584E-2,-6.354937E-2,-6.9656074E-2,-4.693578E-2,-6.2165406E-2,-8.00374E-2,-3.3763573E-2,-5.15349E-3,-2.553527E-2,1.412025E-2,-9.331413E-3,4.027705E-3,2.4913415E-2,-4.742544E-2,-1.8531913E-2,-7.304586E-2,-3.7505347E-2,-7.469648E-2,-6.54115E-2,-5.9133153E-2,-4.0611096E-2,-6.768924E-2,-4.759849E-2,9.688011E-3,-2.9031698E-2,6.0223557E-2,-1.0460175E-2,-2.2513382E-2,1.0006419E-2,5.3193297E-2,3.9012197E-2,4.7369532E-2,1.7892223E-2,6.698484E-2,7.03641E-2,5.433462E-2,6.131939E-2,3.304997E-2,-3.301977E-3,3.3930715E-2,5.447021E-2,5.2780747E-2,3.5686042E-2,3.8977325E-2,-1.2144202E-2],"split_indices":[0,0,0,0,0,0,0,0,0,0,0,0,0,0,0,7,0,0,0,0,0,4,7,3,0,6,6,0,7,0,7,4,7,0,7,0,0,0,0,0,7,4,5,6,6,0,7,5,4,8,7,0,0,0,0,0,0,0,0,0,0,0,0,0,0,0,0,0,0,0,0,0,0,0,0,0,0,0,0,0,0,0,0,0,0,0,0,0,0,0,0,0,0,0,0,0,0],"split_type":[0,0,0,0,0,0,0,0,0,0,0,0,0,0,0,0,0,0,0,0,0,0,0,0,0,0,0,0,0,0,0,0,0,0,0,0,0,0,0,0,0,0,0,0,0,0,0,0,0,0,0,0,0,0,0,0,0,0,0,0,0,0,0,0,0,0,0,0,0,0,0,0,0,0,0,0,0,0,0,0,0,0,0,0,0,0,0,0,0,0,0,0,0,0,0,0,0],"sum_hessian":[4.7548944E5,2.9461306E5,1.8087638E5,1.415359E5,1.5307716E5,7.152013E4,1.09356234E5,4.503877E4,9.649713E4,1.4922412E5,3.8530337E3,6.2411203E4,9.108934E3,5.993989E4,4.9416344E4,3.558269E4,9.456076E3,3.4824746E4,6.1672387E4,1.1228806E5,3.6936062E4,1.5675002E3,2.2855334E3,4.9511436E3,5.746006E4,3.920568E3,5.188365E3,1.9993748E4,1.5588944E4,4.361979E3,5.0940967E3,1.2448627E4,2.237612E4,5.7439082E4,4.2333022E3,4.521616E4,6.70719E4,2.2185646E4,1.4750416E4,1.5363641E2,1.4138639E3,5.232271E2,1.7623062E3,3.7322197E3,1.2189238E3,4.870637E4,8.753687E3,2.915943E3,1.004625E3,3.0849485E3,2.1034167E3,1.0082024E4,9.911724E3,5.2243037E3,1.0364642E4,2.3070378E3,2.0549412E3,2.5956165E2,4.834535E3,3.6241116E3,8.824516E3,2.1053064E3,2.0270812E4,2.939018E4,2.8048902E4,1.2485981E3,2.9847039E3,3.3698434E4,1.15177295E4,6.119732E4,5.874576E3,5.1800728E3,1.7005574E4,1.2464788E4,2.285628E3,6.6889075E2,7.449731E2,3.3782715E2,1.854E2,5.582264E2,1.2040798E3,2.2512024E3,1.4810172E3,5.0179282E2,7.17131E2,1.8677254E4,3.0029117E4,5.5558237E3,3.197863E3,2.752202E3,1.6374135E2,4.3621353E2,5.6841144E2,2.5378608E3,5.470876E2,2.0231866E3,8.023023E1],"tree_param":{"num_deleted":"0","num_feature":"9","num_nodes":"97","size_leaf_vector":"1"}},{"base_weights":[2.3422996E-5,-8.1291324E-1,1.3352296E0,-3.5312808E-1,-1.2437239E0,1.2041922E0,1.4214205E0,-1.2530797E0,5.8988854E-2,-1.3558763E0,-9.0473264E-1,1.2677368E0,7.739397E-1,7.1333125E-2,7.075175E-2,-1.3606243E0,-8.534523E-1,-2.2033559E-1,2.1685198E-1,-1.2364382E0,-1.4270748E0,-1.0034016E0,-4.6071332E-2,8.3055985E-1,1.3058398E0,6.6482556E-1,8.565632E-1,-1.3923736E0,-1.3060504E0,-1.0438505E0,-6.914927E-1,-3.9126465E-1,-1.4383496E-1,2.7075648E-1,-5.167213E-1,-1.4240496E0,-5.6735885E-1,-1.4537177E0,-1.2383416E0,-7.998954E-1,-1.2387453E0,1.6618401E-1,-3.245196E-1,9.278359E-1,6.053666E-1,1.3432828E0,1.098784E0,5.767784E-1,8.421598E-1,9.577488E-1,7.085804E-1,-7.140895E-2,-6.6349745E-2,-5.6052238E-2,-6.7734726E-2,-5.5004176E-2,-3.133981E-2,-3.8454913E-2,-7.946525E-3,-7.916615E-3,-3.423758E-2,-4.621781E-3,-2.5424719E-2,3.8263262E-3,2.3745967E-2,-4.5569375E-2,-1.7642502E-2,-4.7500875E-2,-7.271992E-2,-3.754202E-2,-1.3990027E-2,-6.853647E-2,-7.3179215E-2,-6.544266E-2,-5.0181787E-2,-3.4782823E-2,-4.8643094E-2,-6.469611E-2,-4.575066E-2,3.9614957E-2,-2.6206907E-3,-1.1028649E-2,-9.704333E-2,4.844269E-2,-2.47783E-4,-1.9191863E-2,3.6226932E-2,6.50543E-2,6.8476774E-2,5.2516807E-2,5.9650987E-2,-2.3708059E-2,3.2964088E-2,6.0170807E-2,3.694814E-2,5.085927E-2,3.413333E-2,2.8127873E-2,4.8684917E-2],"categories":[],"categories_nodes":[],"categories_segments":[],"categories_sizes":[],"default_left":[0,0,0,0,0,0,0,0,0,0,0,0,0,0,0,0,0,0,0,0,0,0,0,0,0,0,0,0,0,0,0,0,0,0,0,0,0,0,0,0,0,0,0,0,0,0,0,0,0,0,0,0,0,0,0,0,0,0,0,0,0,0,0,0,0,0,0,0,0,0,0,0,0,0,0,0,0,0,0,0,0,0,0,0,0,0,0,0,0,0,0,0,0,0,0,0,0,0,0],"id":9,"left_children":[1,3,5,7,9,11,13,15,17,19,21,23,25,-1,-1,27,29,31,33,35,37,39,41,43,45,47,49,51,53,55,57,59,61,63,65,67,69,71,73,75,77,79,81,83,85,87,89,91,93,95,97,-1,-1,-1,-1,-1,-1,-1,-1,-1,-1,-1,-1,-1,-1,-1,-1,-1,-1,-1,-1,-1,-1,-1,-1,-1,-1,-1,-1,-1,-1,-1,-1,-1,-1,-1,-1,-1,-1,-1,-1,-1,-1,-1,-1,-1,-1,-1,-1],"loss_changes":[5.0713284E5,5.752278E4,1.9952188E3,5.210173E4,5.6987656E3,1.9172422E3,1.546875E0,1.8951953E3,4.2488696E3,9.562031E2,3.157914E3,1.01721094E3,8.085156E1,0E0,0E0,5.842578E1,2.878828E2,4.549098E2,2.4345408E3,5.281449E3,3.530625E2,1.6001992E3,2.2716818E2,1.06855225E2,4.3445312E2,6.0349E1,7.622705E1,4.951953E1,1.1370117E2,1.0015234E2,2.090149E2,7.3526184E2,4.504953E2,2.2741533E3,2.7224866E2,4.7141406E2,4.861006E2,4.8617188E1,1.4327734E2,3.2262695E2,2.757129E2,2.9857852E2,2.7889963E2,1.3095312E2,1.7499463E2,5.0960938E1,3.808496E1,2.2633118E2,4.7221252E1,4.9131836E1,8.034607E1,0E0,0E0,0E0,0E0,0E0,0E0,0E0,0E0,0E0,0E0,0E0,0E0,0E0,0E0,0E0,0E0,0E0,0E0,0E0,0E0,0E0,0E0,0E0,0E0,0E0,0E0,0E0,0E0,0E0,0E0,0E0,0E0,0E0,0E0,0E0,0E0,0E0,0E0,0E0,0E0,0E0,0E0,0E0,0E0,0E0,0E0,0E0,0E0],"parents":[2147483647,0,0,1,1,2,2,3,3,4,4,5,5,6,6,7,7,8,8,9,9,10,10,11,11,12,12,15,15,16,16,17,17,18,18,19,19,20,20,21,21,22,22,23,23,24,24,25,25,26,26,27,27,28,28,29,29,30,30,31,31,32,32,33,33,34,34,35,35,36,36,37,37,38,38,39,39,40,40,41,41,42,42,43,43,44,44,45,45,46,46,47,47,48,48,49,49,50,50],"right_children":[2,4,6,8,10,12,14,16,18,20,22,24,26,-1,-1,28,30,32,34,36,38,40,42,44,46,48,50,52,54,56,58,60,62,64,66,68,70,72,74,76,78,80,82,84,86,88,90,92,94,96,98,-1,-1,-1,-1,-1,-1,-1,-1,-1,-1,-1,-1,-1,-1,-1,-1,-1,-1,-1,-1,-1,-1,-1,-1,-1,-1,-1,-1,-1,-1,-1,-1,-1,-1,-1,-1,-1,-1,-1,-1,-1,-1,-1,-1,-1,-1,-1,-1],"split_conditions":[1.1899996E1,9.644781E0,1.288173E1,8.358901E0,1.1085813E1,1.2472192E1,1.3250142E1,8.1792E0,8.711937E0,1.0357648E1,1.1791185E1,1.1996839E1,1.2643876E1,7.1333125E-2,7.075175E-2,9E0,8.273847E0,8.495152E0,9.562826E0,1.0284455E1,1.0977397E1,1.1323857E1,5E0,6E0,1.2259769E1,1E0,5E0,1E0,1E1,9E0,4E0,6E0,1.2E1,9.283405E0,5E0,9.694863E0,9E0,1.04252825E1,1.1E1,3E0,1.1718931E1,2E0,4E0,4E0,3E0,1.2115661E1,1E0,2E0,2E0,1E0,9E0,-7.140895E-2,-6.6349745E-2,-5.6052238E-2,-6.7734726E-2,-5.5004176E-2,-3.133981E-2,-3.8454913E-2,-7.946525E-3,-7.916615E-3,-3.423758E-2,-4.621781E-3,-2.5424719E-2,3.8263262E-3,2.3745967E-2,-4.5569375E-2,-1.7642502E-2,-4.7500875E-2,-7.271992E-2,-3.754202E-2,-1.3990027E-2,-6.853647E-2,-7.3179215E-2,-6.544266E-2,-5.0181787E-2,-3.4782823E-2,-4.8643094E-2,-6.469611E-2,-4.575066E-2,3.9614957E-2,-2.6206907E-3,-1.1028649E-2,-9.704333E-2,4.844269E-2,-2.47783E-4,-1.9191863E-2,3.6226932E-2,6.50543E-2,6.8476774E-2,5.2516807E-2,5.9650987E-2,-2.3708059E-2,3.2964088E-2,6.0170807E-2,3.694814E-2,5.085927E-2,3.413333E-2,2.8127873E-2,4.8684917E-2],"split_indices":[0,0,0,0,0,0,0,0,0,0,0,0,0,0,0,7,0,0,0,0,0,0,6,6,0,8,6,3,7,6,5,4,7,0,7,0,7,0,7,5,0,7,5,5,7,0,8,7,7,8,4,0,0,0,0,0,0,0,0,0,0,0,0,0,0,0,0,0,0,0,0,0,0,0,0,0,0,0,0,0,0,0,0,0,0,0,0,0,0,0,0,0,0,0,0,0,0,0,0],"split_type":[0,0,0,0,0,0,0,0,0,0,0,0,0,0,0,0,0,0,0,0,0,0,0,0,0,0,0,0,0,0,0,0,0,0,0,0,0,0,0,0,0,0,0,0,0,0,0,0,0,0,0,0,0,0,0,0,0,0,0,0,0,0,0,0,0,0,0,0,0,0,0,0,0,0,0,0,0,0,0,0,0,0,0,0,0,0,0,0,0,0,0,0,0,0,0,0,0,0,0],"sum_hessian":[4.672129E5,2.904025E5,1.7681039E5,1.4047819E5,1.4992433E5,7.015997E4,1.0665042E5,4.4123152E4,9.635503E4,1.12651516E5,3.7272812E4,6.1129684E4,9.030283E3,5.8447504E4,4.820292E4,3.4765047E4,9.3581045E3,3.479249E4,6.156254E4,4.207964E4,7.057187E4,3.343107E4,3.8417422E3,4.9025693E3,5.6227113E4,3.895222E3,5.135061E3,2.1963121E4,1.2801925E4,4.2989062E3,5.059198E3,1.0755914E4,2.4036574E4,5.7349043E4,4.2134966E3,3.2863508E4,9.216133E3,6.183598E4,8.735889E3,1.7930564E4,1.5500507E4,2.1802139E3,1.6615284E3,3.421482E3,1.4810875E3,4.7611734E4,8.615379E3,2.605723E3,1.289499E3,3.0464988E3,2.0885625E3,1.4177681E4,7.785441E3,2.6702678E3,1.0131657E4,3.7866946E3,5.122114E2,4.4153447E3,6.4385345E2,5.9974473E3,4.7584673E3,2.1068227E4,2.968348E3,2.939015E4,2.7958893E4,1.2348741E3,2.9786226E3,1.979348E3,3.0884162E4,5.625241E3,3.5908914E3,6.585494E3,5.525049E4,6.7141987E3,2.0216896E3,1.1191172E4,6.7393916E3,1.3240757E4,2.2597495E3,5.6352435E2,1.6166895E3,1.5622004E3,9.932804E1,3.2773284E3,1.4415361E2,1.5900705E2,1.3220806E3,1.828007E4,2.9331666E4,5.6980723E3,2.917307E3,1.8932512E2,2.4163977E3,2.841454E2,1.0053537E3,2.5029854E3,5.435135E2,1.3487911E3,7.3977136E2],"tree_param":{"num_deleted":"0","num_feature":"9","num_nodes":"99","size_leaf_vector":"1"}},{"base_weights":[2.5213316E-5,-7.845316E-1,1.3002671E0,-3.3833146E-1,-1.2085832E0,1.1680789E0,1.3877703E0,-1.2572134E0,3.925956E-2,-1.3214415E0,-8.71387E-1,1.2318081E0,7.4212676E-1,6.965677E-2,6.90619E-2,-1.3257506E0,-9.088969E-1,-2.3579036E-1,2.0640324E-1,-1.2063572E0,-1.3963914E0,-9.678009E-1,-4.382311E-2,7.9732525E-1,1.2701663E0,6.3595814E-1,8.228551E-1,-1.3579793E0,-1.2704941E0,-5.184287E-1,-1.0017314E0,-4.1475987E-1,-1.3666902E-1,6.0512006E-1,1.09711595E-1,-1.3904128E0,-6.8723357E-1,-1.4250939E0,-1.2017515E0,-7.533725E-1,-1.1871281E0,-3.2831666E-1,1.506807E-1,8.8301796E-1,5.369143E-1,1.3080884E0,1.0619953E0,5.192997E-1,7.706404E-1,9.222732E-1,6.7830247E-1,-6.970144E-2,-6.461515E-2,-5.4299224E-2,-6.596296E-2,-9.408346E-3,-5.911107E-2,-5.3238064E-2,-2.6222793E-2,-1.2324587E-2,-3.0797705E-2,-2.2248747E-3,-1.6433781E-2,4.4678178E-2,2.3610054E-2,-1.8046668E-2,1.5907824E-2,-4.5947183E-2,-7.1044624E-2,-2.4358433E-2,-5.81305E-2,-6.759199E-2,-7.1543455E-2,-6.358845E-2,-4.849622E-2,-5.3701263E-2,-3.4744613E-2,-6.179371E-2,-4.399979E-2,-7.569081E-2,-1.0062879E-2,1.1730939E-2,-4.1478787E-2,3.8500708E-2,5.279186E-2,3.5083648E-2,3.2981273E-3,6.326286E-2,6.673973E-2,4.669026E-2,5.4936297E-2,2.9062813E-2,-1.158749E-1,2.4950948E-2,4.916501E-2,4.9043726E-2,3.2657832E-2,3.5922598E-2,-1.2442896E-2],"categories":[],"categories_nodes":[],"categories_segments":[],"categories_sizes":[],"default_left":[0,0,0,0,0,0,0,0,0,0,0,0,0,0,0,0,0,0,0,0,0,0,0,0,0,0,0,0,0,0,0,0,0,0,0,0,0,0,0,0,0,0,0,0,0,0,0,0,0,0,0,0,0,0,0,0,0,0,0,0,0,0,0,0,0,0,0,0,0,0,0,0,0,0,0,0,0,0,0,0,0,0,0,0,0,0,0,0,0,0,0,0,0,0,0,0,0,0,0],"id":10,"left_children":[1,3,5,7,9,11,13,15,17,19,21,23,25,-1,-1,27,29,31,33,35,37,39,41,43,45,47,49,51,53,55,57,59,61,63,65,67,69,71,73,75,77,79,81,83,85,87,89,91,93,95,97,-1,-1,-1,-1,-1,-1,-1,-1,-1,-1,-1,-1,-1,-1,-1,-1,-1,-1,-1,-1,-1,-1,-1,-1,-1,-1,-1,-1,-1,-1,-1,-1,-1,-1,-1,-1,-1,-1,-1,-1,-1,-1,-1,-1,-1,-1,-1,-1],"loss_changes":[4.6786912E5,5.4122906E4,1.9948125E3,4.8361062E4,5.5801562E3,1.8653984E3,1.703125E0,9.6790234E2,4.541723E3,9.461094E2,2.9346562E3,9.9566406E2,7.61875E1,0E0,0E0,5.8683594E1,2.415376E2,6.6237915E2,2.3689653E3,4.140582E3,3.700078E2,1.5484102E3,2.1248135E2,1.07846436E2,4.3240625E2,6.04104E1,7.239209E1,4.8882812E1,1.11134766E2,2.8142413E2,1.617041E2,4.504358E2,4.2531915E2,4.5939258E2,4.852037E3,4.5852344E2,1.0786514E3,2.2609375E1,1.376709E2,3.1166406E2,2.4270508E2,2.3455527E2,1.8786154E2,7.048218E1,9.34061E1,5.1476562E1,3.8868164E1,3.664015E2,1.03156006E2,4.6791504E1,7.739221E1,0E0,0E0,0E0,0E0,0E0,0E0,0E0,0E0,0E0,0E0,0E0,0E0,0E0,0E0,0E0,0E0,0E0,0E0,0E0,0E0,0E0,0E0,0E0,0E0,0E0,0E0,0E0,0E0,0E0,0E0,0E0,0E0,0E0,0E0,0E0,0E0,0E0,0E0,0E0,0E0,0E0,0E0,0E0,0E0,0E0,0E0,0E0,0E0],"parents":[2147483647,0,0,1,1,2,2,3,3,4,4,5,5,6,6,7,7,8,8,9,9,10,10,11,11,12,12,15,15,16,16,17,17,18,18,19,19,20,20,21,21,22,22,23,23,24,24,25,25,26,26,27,27,28,28,29,29,30,30,31,31,32,32,33,33,34,34,35,35,36,36,37,37,38,38,39,39,40,40,41,41,42,42,43,43,44,44,45,45,46,46,47,47,48,48,49,49,50,50],"right_children":[2,4,6,8,10,12,14,16,18,20,22,24,26,-1,-1,28,30,32,34,36,38,40,42,44,46,48,50,52,54,56,58,60,62,64,66,68,70,72,74,76,78,80,82,84,86,88,90,92,94,96,98,-1,-1,-1,-1,-1,-1,-1,-1,-1,-1,-1,-1,-1,-1,-1,-1,-1,-1,-1,-1,-1,-1,-1,-1,-1,-1,-1,-1,-1,-1,-1,-1,-1,-1,-1,-1,-1,-1,-1,-1,-1,-1,-1,-1,-1,-1,-1,-1],"split_conditions":[1.1899996E1,9.644781E0,1.288173E1,8.316545E0,1.1085813E1,1.2472192E1,1.3250142E1,8.1792E0,8.711937E0,1.0378541E1,1.1791185E1,1.1996839E1,1.2643876E1,6.965677E-2,6.90619E-2,9E0,2E0,8.495152E0,8.890135E0,1.0284455E1,1.0977397E1,1.1305987E1,1.1836812E1,1E0,1.2259769E1,6E0,5E0,1E0,1E1,3E0,4E0,6E0,1E0,3E0,9.248214E0,9.694863E0,1.0347307E1,1.04252825E1,1.1E1,2E0,1.1718931E1,2E0,1.2E1,1E1,6E0,1.2115661E1,4E0,1.3E1,7E0,1E0,1.1E1,-6.970144E-2,-6.461515E-2,-5.4299224E-2,-6.596296E-2,-9.408346E-3,-5.911107E-2,-5.3238064E-2,-2.6222793E-2,-1.2324587E-2,-3.0797705E-2,-2.2248747E-3,-1.6433781E-2,4.4678178E-2,2.3610054E-2,-1.8046668E-2,1.5907824E-2,-4.5947183E-2,-7.1044624E-2,-2.4358433E-2,-5.81305E-2,-6.759199E-2,-7.1543455E-2,-6.358845E-2,-4.849622E-2,-5.3701263E-2,-3.4744613E-2,-6.179371E-2,-4.399979E-2,-7.569081E-2,-1.0062879E-2,1.1730939E-2,-4.1478787E-2,3.8500708E-2,5.279186E-2,3.5083648E-2,3.2981273E-3,6.326286E-2,6.673973E-2,4.669026E-2,5.4936297E-2,2.9062813E-2,-1.158749E-1,2.4950948E-2,4.916501E-2,4.9043726E-2,3.2657832E-2,3.5922598E-2,-1.2442896E-2],"split_indices":[0,0,0,0,0,0,0,0,0,0,0,0,0,0,0,7,4,0,0,0,0,0,0,3,0,6,6,3,7,5,5,4,3,4,0,0,0,0,7,4,0,4,7,7,6,0,7,7,4,8,4,0,0,0,0,0,0,0,0,0,0,0,0,0,0,0,0,0,0,0,0,0,0,0,0,0,0,0,0,0,0,0,0,0,0,0,0,0,0,0,0,0,0,0,0,0,0,0,0],"split_type":[0,0,0,0,0,0,0,0,0,0,0,0,0,0,0,0,0,0,0,0,0,0,0,0,0,0,0,0,0,0,0,0,0,0,0,0,0,0,0,0,0,0,0,0,0,0,0,0,0,0,0,0,0,0,0,0,0,0,0,0,0,0,0,0,0,0,0,0,0,0,0,0,0,0,0,0,0,0,0,0,0,0,0,0,0,0,0,0,0,0,0,0,0,0,0,0,0,0,0],"sum_hessian":[4.5864216E5,2.86045E5,1.7259714E5,1.3938336E5,1.4666162E5,6.875129E4,1.0384585E5,4.0594004E4,9.878936E4,1.0988173E5,3.677991E4,5.980206E4,8.949233E3,5.690066E4,4.6945195E4,3.3917375E4,6.676632E3,3.7340996E4,6.1448367E4,4.334431E4,6.6537414E4,3.2941902E4,3.838009E3,4.8530825E3,5.4948977E4,3.8693677E3,5.079865E3,2.1407623E4,1.250975E4,1.2837356E3,5.3928965E3,1.3308505E4,2.403249E4,1.1992196E4,4.9456168E4,3.1997799E4,1.1346508E4,5.7980938E4,8.556479E3,1.6659213E4,1.6282688E4,1.5581997E3,2.2798093E3,3.6496963E3,1.2033862E3,4.6477062E4,8.471912E3,2.0760234E3,1.7933442E3,3.0066316E3,2.073234E3,1.3808147E4,7.5994756E3,2.6199705E3,9.889779E3,8.580882E2,4.2564746E2,4.7626953E3,6.302011E2,7.248484E3,6.060021E3,1.6238524E4,7.7939663E3,3.7811384E3,8.211058E3,1.5180221E4,3.427595E4,1.9448844E3,3.0052914E4,7.98711E3,3.359398E3,4.2542563E3,5.372668E4,6.568227E3,1.9882516E3,2.56696E3,1.4092252E4,1.4049771E4,2.2329163E3,1.4978128E2,1.4084185E3,2.1006904E3,1.7911873E2,2.2100405E3,1.4396558E3,8.9113873E2,3.122475E2,1.7868342E4,2.860872E4,1.8927222E3,6.5791904E3,2.0324296E3,4.3593853E1,7.8897107E2,1.0043731E3,2.4668247E3,5.398069E2,1.9873972E3,8.5836624E1],"tree_param":{"num_deleted":"0","num_feature":"9","num_nodes":"99","size_leaf_vector":"1"}},{"base_weights":[2.690634E-5,-7.575206E-1,1.2678407E0,-3.2012755E-1,-1.1720514E0,1.1341958E0,1.3569137E0,-1.2239139E0,4.7721338E-2,-1.2833322E0,-8.397398E-1,1.1982455E0,7.119015E-1,6.8121046E-2,6.751059E-2,-1.2934707E0,-8.7500894E-1,-2.2429194E-1,2.1652626E-1,-1.1610883E0,-1.3658003E0,-9.339532E-1,-4.1782714E-2,7.6594E-1,1.2369248E0,6.0851663E-1,7.908551E-1,-1.331631E0,-1.2448026E0,-4.961992E-1,-9.657285E-1,-3.9529902E-1,-1.2985982E-1,6.34263E-1,1.3917404E-1,-1.3358318E0,-6.582792E-1,-1.3952734E0,-1.1674564E0,-7.356341E-1,-1.1686356E0,1.6031332E-1,-3.068843E-1,8.496041E-1,5.13297E-1,1.2754303E0,1.0272034E0,5.366011E-1,8.1848514E-1,8.8858765E-1,6.4959E-1,-6.4518385E-2,-6.867917E-2,-6.321248E-2,-5.2164115E-2,-8.961133E-3,-5.710686E-2,-5.1377982E-2,-2.508142E-2,-1.1724802E-2,-2.9415715E-2,-4.0517263E-3,-2.382682E-2,4.533291E-2,2.524806E-2,-1.2006977E-2,1.718541E-2,-4.17888E-2,-6.951736E-2,-2.3267714E-2,-5.6040924E-2,-6.6063814E-2,-7.00559E-2,-6.1861433E-2,-4.6891097E-2,-4.8053335E-2,-3.2685895E-2,-6.1233986E-2,-4.2335812E-2,3.7701394E-2,-2.307651E-3,-1.039896E-2,-9.272705E-2,4.4097092E-2,1.3750029E-2,4.2170152E-2,1.4267375E-2,6.15923E-2,6.5133534E-2,4.891589E-2,5.613635E-2,2.8801268E-2,-9.453178E-3,3.568472E-2,5.963661E-2,1.2325385E-2,4.5647535E-2,2.5291458E-2,4.558916E-2],"categories":[],"categories_nodes":[],"categories_segments":[],"categories_sizes":[],"default_left":[0,0,0,0,0,0,0,0,0,0,0,0,0,0,0,0,0,0,0,0,0,0,0,0,0,0,0,0,0,0,0,0,0,0,0,0,0,0,0,0,0,0,0,0,0,0,0,0,0,0,0,0,0,0,0,0,0,0,0,0,0,0,0,0,0,0,0,0,0,0,0,0,0,0,0,0,0,0,0,0,0,0,0,0,0,0,0,0,0,0,0,0,0,0,0,0,0,0,0],"id":11,"left_children":[1,3,5,7,9,11,13,15,17,19,21,23,25,-1,-1,27,29,31,33,35,37,39,41,43,45,47,49,51,53,55,57,59,61,63,65,67,69,71,73,75,77,79,81,83,85,87,89,91,93,95,97,-1,-1,-1,-1,-1,-1,-1,-1,-1,-1,-1,-1,-1,-1,-1,-1,-1,-1,-1,-1,-1,-1,-1,-1,-1,-1,-1,-1,-1,-1,-1,-1,-1,-1,-1,-1,-1,-1,-1,-1,-1,-1,-1,-1,-1,-1,-1,-1],"loss_changes":[4.3209512E5,5.106139E4,2.0016562E3,4.5557844E4,5.345828E3,1.8196172E3,1.875E0,9.608828E2,4.472134E3,1.0903594E3,2.7270547E3,9.7625E2,7.189111E1,0E0,0E0,5.971875E1,2.2606104E2,6.022307E2,1.9418906E3,3.8335742E3,3.7645312E2,1.509168E3,2.0533627E2,1.01063965E2,4.3184375E2,5.7598022E1,6.878296E1,3.0269531E1,5.5664062E1,2.6099927E2,1.5207031E2,4.1166577E2,4.0669638E2,3.3025366E2,3.9343494E3,8.816836E2,1.0040254E3,2.2492188E1,1.3299707E2,3.2414746E2,2.6702734E2,2.6663553E2,2.533794E2,6.675903E1,8.98403E1,5.2195312E1,3.778125E1,8.2097595E1,3.753009E1,4.6183594E1,7.711511E1,0E0,0E0,0E0,0E0,0E0,0E0,0E0,0E0,0E0,0E0,0E0,0E0,0E0,0E0,0E0,0E0,0E0,0E0,0E0,0E0,0E0,0E0,0E0,0E0,0E0,0E0,0E0,0E0,0E0,0E0,0E0,0E0,0E0,0E0,0E0,0E0,0E0,0E0,0E0,0E0,0E0,0E0,0E0,0E0,0E0,0E0,0E0,0E0],"parents":[2147483647,0,0,1,1,2,2,3,3,4,4,5,5,6,6,7,7,8,8,9,9,10,10,11,11,12,12,15,15,16,16,17,17,18,18,19,19,20,20,21,21,22,22,23,23,24,24,25,25,26,26,27,27,28,28,29,29,30,30,31,31,32,32,33,33,34,34,35,35,36,36,37,37,38,38,39,39,40,40,41,41,42,42,43,43,44,44,45,45,46,46,47,47,48,48,49,49,50,50],"right_children":[2,4,6,8,10,12,14,16,18,20,22,24,26,-1,-1,28,30,32,34,36,38,40,42,44,46,48,50,52,54,56,58,60,62,64,66,68,70,72,74,76,78,80,82,84,86,88,90,92,94,96,98,-1,-1,-1,-1,-1,-1,-1,-1,-1,-1,-1,-1,-1,-1,-1,-1,-1,-1,-1,-1,-1,-1,-1,-1,-1,-1,-1,-1,-1,-1,-1,-1,-1,-1,-1,-1,-1,-1,-1,-1,-1,-1,-1,-1,-1,-1,-1,-1],"split_conditions":[1.1899996E1,9.617471E0,1.288173E1,8.316545E0,1.1085813E1,1.2472192E1,1.3250142E1,8.1792E0,8.711937E0,1.0378541E1,1.1791185E1,1.1996839E1,1.2643876E1,6.8121046E-2,6.751059E-2,8E0,2E0,8.495152E0,8.8444805E0,1.0284455E1,1.0977397E1,1.1323857E1,5E0,1E0,1.2259769E1,8E0,5E0,7.590347E0,1.1E1,3E0,4E0,6E0,1.2E1,3E0,9.248214E0,9.694863E0,1.0347307E1,1.04252825E1,1.1E1,4E0,1.1718931E1,2E0,4E0,4E0,3E0,1.2115661E1,1E0,1.1E1,1.1E1,1E0,9E0,-6.4518385E-2,-6.867917E-2,-6.321248E-2,-5.2164115E-2,-8.961133E-3,-5.710686E-2,-5.1377982E-2,-2.508142E-2,-1.1724802E-2,-2.9415715E-2,-4.0517263E-3,-2.382682E-2,4.533291E-2,2.524806E-2,-1.2006977E-2,1.718541E-2,-4.17888E-2,-6.951736E-2,-2.3267714E-2,-5.6040924E-2,-6.6063814E-2,-7.00559E-2,-6.1861433E-2,-4.6891097E-2,-4.8053335E-2,-3.2685895E-2,-6.1233986E-2,-4.2335812E-2,3.7701394E-2,-2.307651E-3,-1.039896E-2,-9.272705E-2,4.4097092E-2,1.3750029E-2,4.2170152E-2,1.4267375E-2,6.15923E-2,6.5133534E-2,4.891589E-2,5.613635E-2,2.8801268E-2,-9.453178E-3,3.568472E-2,5.963661E-2,1.2325385E-2,4.5647535E-2,2.5291458E-2,4.558916E-2],"split_indices":[0,0,0,0,0,0,0,0,0,0,0,0,0,0,0,7,4,0,0,0,0,0,6,3,0,6,6,0,4,5,5,4,7,4,0,0,0,0,7,7,0,7,5,5,6,0,8,4,4,7,4,0,0,0,0,0,0,0,0,0,0,0,0,0,0,0,0,0,0,0,0,0,0,0,0,0,0,0,0,0,0,0,0,0,0,0,0,0,0,0,0,0,0,0,0,0,0,0,0],"split_type":[0,0,0,0,0,0,0,0,0,0,0,0,0,0,0,0,0,0,0,0,0,0,0,0,0,0,0,0,0,0,0,0,0,0,0,0,0,0,0,0,0,0,0,0,0,0,0,0,0,0,0,0,0,0,0,0,0,0,0,0,0,0,0,0,0,0,0,0,0,0,0,0,0,0,0,0,0,0,0,0,0,0,0,0,0,0,0,0,0,0,0,0,0,0,0,0,0,0,0],"sum_hessian":[4.4989594E5,2.8162125E5,1.6827469E5,1.3703269E5,1.4458856E5,6.730463E4,1.00970055E5,3.9639094E4,9.73936E4,1.0831453E5,3.6274035E4,5.8439258E4,8.865374E3,5.531453E4,4.5655523E4,3.3048008E4,6.591085E3,3.7295336E4,6.009826E4,4.3640477E4,6.4674055E4,3.2443336E4,3.8307E3,4.8009814E3,5.3638277E4,3.842531E3,5.0228433E3,1.8508975E4,1.4539034E4,1.2747389E3,5.316346E3,1.326698E4,2.4028357E4,9.388567E3,5.0709695E4,3.2384203E4,1.1256276E4,5.630178E4,8.372272E3,1.7586193E4,1.4857143E4,2.1738752E3,1.6568246E3,3.6048523E3,1.1961293E3,4.5313492E4,8.324787E3,2.8648555E3,9.7767554E2,2.9657405E3,2.0571025E3,9.347144E3,9.161831E3,1.3254671E4,1.2843633E3,8.5597156E2,4.1876736E2,4.6902583E3,6.2608777E2,7.2386245E3,6.0283564E3,2.1063102E4,2.9652546E3,3.0201401E3,6.3684277E3,1.7764613E4,3.2945082E4,3.1850261E3,2.9199176E4,7.9445957E3,3.3116802E3,4.138008E3,5.2163773E4,6.417874E3,1.9543987E3,4.6843037E3,1.2901889E4,1.265175E4,2.205393E3,5.60229E2,1.6136464E3,1.5583694E3,9.8455315E1,3.4122803E3,1.9257207E2,4.8748123E2,7.086481E2,1.7446113E4,2.7867377E4,5.514103E3,2.8106838E3,2.717428E3,1.4742757E2,7.660775E2,2.1159802E2,1.0882431E2,2.8569163E3,1.3305109E3,7.265917E2],"tree_param":{"num_deleted":"0","num_feature":"9","num_nodes":"99","size_leaf_vector":"1"}},{"base_weights":[2.9103185E-5,-7.3189425E-1,1.2376075E0,-3.1063306E-1,-1.1449494E0,1.1022149E0,1.3285068E0,-1.192723E0,3.558099E-2,-1.2600962E0,-8.0956775E-1,1.1667286E0,6.829826E-1,6.670873E-2,6.608066E-2,-1.2634393E0,-8.4282863E-1,-2.1336806E-1,1.8691505E-1,-1.1423153E0,-1.3376944E0,-9.017973E-1,-3.9755613E-2,7.360517E-1,1.2058064E0,5.8232415E-1,7.6019156E-1,-1.3024926E0,-1.2137845E0,-4.7503367E-1,-9.315864E-1,-3.7678468E-1,-1.2339683E-1,2.3805217E-1,-5.07735E-1,-1.331345E0,-6.307333E-1,-1.368036E0,-1.1351651E0,-7.1755415E-1,-1.1518888E0,-3.10038E-1,1.446084E-1,8.308908E-1,5.186896E-1,1.2449865E0,9.9418056E-1,4.973063E-1,7.5444126E-1,8.5629183E-1,6.2212855E-1,-6.303125E-2,-6.725807E-2,-6.16665E-2,-5.0615598E-2,-8.5344855E-3,-5.5224355E-2,-4.9617466E-2,-2.398997E-2,-1.1154238E-2,-2.8101295E-2,-1.7924312E-3,-1.5292617E-2,3.2205803E-3,2.1093637E-2,-3.0296647E-3,-3.2542046E-2,-4.3118175E-2,-6.8120144E-2,-2.2226391E-2,-5.408063E-2,-6.464873E-2,-6.8698846E-2,-6.0245227E-2,-4.5357786E-2,-3.076211E-2,-4.4367544E-2,-6.081718E-2,-4.0750116E-2,-7.3620744E-2,-9.4310595E-3,1.1190727E-2,-3.9336577E-2,4.35626E-2,-3.1515807E-3,-2.1956535E-2,3.1785112E-2,6.002725E-2,6.364166E-2,4.7071487E-2,5.4301377E-2,-2.5924018E-2,2.8912142E-2,5.2364778E-2,3.1437807E-2,4.578874E-2,2.9326051E-2,3.3059355E-2,-1.7384777E-2],"categories":[],"categories_nodes":[],"categories_segments":[],"categories_sizes":[],"default_left":[0,0,0,0,0,0,0,0,0,0,0,0,0,0,0,0,0,0,0,0,0,0,0,0,0,0,0,0,0,0,0,0,0,0,0,0,0,0,0,0,0,0,0,0,0,0,0,0,0,0,0,0,0,0,0,0,0,0,0,0,0,0,0,0,0,0,0,0,0,0,0,0,0,0,0,0,0,0,0,0,0,0,0,0,0,0,0,0,0,0,0,0,0,0,0,0,0,0,0],"id":12,"left_children":[1,3,5,7,9,11,13,15,17,19,21,23,25,-1,-1,27,29,31,33,35,37,39,41,43,45,47,49,51,53,55,57,59,61,63,65,67,69,71,73,75,77,79,81,83,85,87,89,91,93,95,97,-1,-1,-1,-1,-1,-1,-1,-1,-1,-1,-1,-1,-1,-1,-1,-1,-1,-1,-1,-1,-1,-1,-1,-1,-1,-1,-1,-1,-1,-1,-1,-1,-1,-1,-1,-1,-1,-1,-1,-1,-1,-1,-1,-1,-1,-1,-1,-1],"loss_changes":[3.9945075E5,4.8216703E4,2.0154844E3,4.18968E4,5.4021875E3,1.7798281E3,2.0625E0,9.5572656E2,3.7118118E3,9.503906E2,2.5390625E3,9.5933594E2,6.781299E1,0E0,0E0,6.0796875E1,2.1188867E2,5.476107E2,2.1767449E3,4.000086E3,3.842422E2,1.470707E3,1.907573E2,9.7463135E1,4.3246094E2,5.5473145E1,6.5367676E1,3.0447266E1,5.4570312E1,2.4244208E2,1.4333887E2,3.764242E2,3.8374097E2,1.8216975E3,2.68828E2,4.3884375E2,9.36855E2,2.2570312E1,1.2907129E2,3.1895605E2,2.9313477E2,2.1880206E2,1.6806674E2,1.1928296E2,1.6225687E2,5.309375E1,3.859131E1,2.1057361E2,4.571765E1,4.6413086E1,7.758331E1,0E0,0E0,0E0,0E0,0E0,0E0,0E0,0E0,0E0,0E0,0E0,0E0,0E0,0E0,0E0,0E0,0E0,0E0,0E0,0E0,0E0,0E0,0E0,0E0,0E0,0E0,0E0,0E0,0E0,0E0,0E0,0E0,0E0,0E0,0E0,0E0,0E0,0E0,0E0,0E0,0E0,0E0,0E0,0E0,0E0,0E0,0E0,0E0],"parents":[2147483647,0,0,1,1,2,2,3,3,4,4,5,5,6,6,7,7,8,8,9,9,10,10,11,11,12,12,15,15,16,16,17,17,18,18,19,19,20,20,21,21,22,22,23,23,24,24,25,25,26,26,27,27,28,28,29,29,30,30,31,31,32,32,33,33,34,34,35,35,36,36,37,37,38,38,39,39,40,40,41,41,42,42,43,43,44,44,45,45,46,46,47,47,48,48,49,49,50,50],"right_children":[2,4,6,8,10,12,14,16,18,20,22,24,26,-1,-1,28,30,32,34,36,38,40,42,44,46,48,50,52,54,56,58,60,62,64,66,68,70,72,74,76,78,80,82,84,86,88,90,92,94,96,98,-1,-1,-1,-1,-1,-1,-1,-1,-1,-1,-1,-1,-1,-1,-1,-1,-1,-1,-1,-1,-1,-1,-1,-1,-1,-1,-1,-1,-1,-1,-1,-1,-1,-1,-1,-1,-1,-1,-1,-1,-1,-1,-1,-1,-1,-1,-1,-1],"split_conditions":[1.1899996E1,9.644781E0,1.288173E1,8.316545E0,1.1085813E1,1.2472192E1,1.3250142E1,8.1792E0,8.711937E0,1.0378541E1,1.1791185E1,1.1996839E1,1.2643876E1,6.670873E-2,6.608066E-2,8E0,2E0,8.495152E0,9.562826E0,1.0284455E1,1.0977397E1,1.1342196E1,1.1836812E1,6E0,1.2259769E1,1E0,5E0,7.590347E0,1.1E1,3E0,4E0,6E0,1E0,9.283405E0,2E0,9.694863E0,1.0347307E1,1.04252825E1,1.1E1,3E0,1.1718931E1,2E0,1.2E1,4E0,3E0,1.2115661E1,1E1,2E0,3E0,1E0,1.3E1,-6.303125E-2,-6.725807E-2,-6.16665E-2,-5.0615598E-2,-8.5344855E-3,-5.5224355E-2,-4.9617466E-2,-2.398997E-2,-1.1154238E-2,-2.8101295E-2,-1.7924312E-3,-1.5292617E-2,3.2205803E-3,2.1093637E-2,-3.0296647E-3,-3.2542046E-2,-4.3118175E-2,-6.8120144E-2,-2.2226391E-2,-5.408063E-2,-6.464873E-2,-6.8698846E-2,-6.0245227E-2,-4.5357786E-2,-3.076211E-2,-4.4367544E-2,-6.081718E-2,-4.0750116E-2,-7.3620744E-2,-9.4310595E-3,1.1190727E-2,-3.9336577E-2,4.35626E-2,-3.1515807E-3,-2.1956535E-2,3.1785112E-2,6.002725E-2,6.364166E-2,4.7071487E-2,5.4301377E-2,-2.5924018E-2,2.8912142E-2,5.2364778E-2,3.1437807E-2,4.578874E-2,2.9326051E-2,3.3059355E-2,-1.7384777E-2],"split_indices":[0,0,0,0,0,0,0,0,0,0,0,0,0,0,0,7,4,0,0,0,0,0,0,6,0,8,6,0,4,5,5,4,3,0,6,0,0,0,7,5,0,4,7,5,7,0,7,7,7,8,7,0,0,0,0,0,0,0,0,0,0,0,0,0,0,0,0,0,0,0,0,0,0,0,0,0,0,0,0,0,0,0,0,0,0,0,0,0,0,0,0,0,0,0,0,0,0,0,0],"split_type":[0,0,0,0,0,0,0,0,0,0,0,0,0,0,0,0,0,0,0,0,0,0,0,0,0,0,0,0,0,0,0,0,0,0,0,0,0,0,0,0,0,0,0,0,0,0,0,0,0,0,0,0,0,0,0,0,0,0,0,0,0,0,0,0,0,0,0,0,0,0,0,0,0,0,0,0,0,0,0,0,0,0,0,0,0,0,0,0,0,0,0,0,0,0,0,0,0,0,0],"sum_hessian":[4.409841E5,2.77102E5,1.638821E5,1.3718912E5,1.3991288E5,6.5835195E4,9.804689E4,3.8667914E4,9.85212E4,1.04151664E5,3.5761223E4,5.7053688E4,8.781511E3,5.3702293E4,4.4344598E4,3.2164596E4,6.503319E3,3.724752E4,6.1273684E4,4.137186E4,6.27798E4,3.1934986E4,3.8262354E3,4.74781E3,5.2305875E4,3.8155977E3,4.965913E3,1.7990162E4,1.4174434E4,1.2655354E3,5.2377837E3,1.3224462E4,2.4023057E4,5.7072883E4,4.2008E3,3.0208287E4,1.1163572E4,5.459497E4,8.184832E3,1.8390512E4,1.3544474E4,1.5513032E3,2.2749321E3,3.3035764E3,1.4442338E3,4.413069E4,8.1751855E3,2.5566301E3,1.2589674E3,2.9248428E3,2.0410704E3,9.095712E3,8.894449E3,1.2916259E4,1.2581753E3,8.53928E2,4.1160742E2,4.615788E3,6.219956E2,7.228759E3,5.995703E3,1.6234434E4,7.7886235E3,2.9349814E4,2.772307E4,1.0188318E3,3.1819683E3,1.8780516E3,2.8330236E4,7.902117E3,3.2614546E3,4.0201707E3,5.0574797E4,6.26448E3,1.920352E3,1.1478623E4,6.9118887E3,1.1367063E4,2.17741E3,1.456646E2,1.4056385E3,2.0973242E3,1.7760805E2,3.1608857E3,1.4269072E2,1.569282E2,1.2873055E3,1.7016895E4,2.7113797E4,5.1999346E3,2.975251E3,1.8827666E2,2.3683535E3,3.758592E2,8.831082E2,2.3944795E3,5.3036346E2,1.962357E3,7.871336E1],"tree_param":{"num_deleted":"0","num_feature":"9","num_nodes":"99","size_leaf_vector":"1"}},{"base_weights":[3.0055462E-5,-7.075167E-1,1.209299E0,-2.978111E-1,-1.1159277E0,1.0719115E0,1.3022574E0,-1.1830342E0,2.6710402E-2,-1.2325547E0,-7.808622E-1,1.1369692E0,6.554357E-1,6.540513E-2,6.47576E-2,-1.2353923E0,-8.6922365E-1,-2.1415618E-1,1.7791991E-1,-1.113061E0,-1.311779E0,-8.7114984E-1,-3.791451E-2,7.072953E-1,1.1765434E0,5.5736274E-1,7.3100716E-1,-1.2754406E0,-1.1846387E0,-9.2863667E-1,-4.2068043E-1,-3.7604502E-1,-1.1725446E-1,5.50857E-1,8.722958E-2,-1.3051941E0,-6.044799E-1,-1.3430831E0,-1.1046292E0,-6.7739594E-1,-1.106386E0,1.5459228E-1,-2.904467E-1,7.907743E-1,4.5788026E-1,1.2164818E0,9.6271193E-1,4.8678872E-1,7.648486E-1,8.2565653E-1,5.9590656E-1,-6.16416E-2,-6.594888E-2,-5.8185276E-2,-6.9115385E-2,-2.8965821E-2,-5.0656386E-2,1.1124975E-3,-7.61844E-2,-4.8425747E-3,-2.4610763E-2,-3.5433162E-3,-2.2350693E-2,3.7018813E-2,1.8628066E-2,-1.6716076E-2,1.3759601E-2,-4.174182E-2,-6.683775E-2,-2.1231642E-2,-5.22335E-2,-6.3333146E-2,-6.745728E-2,-5.8725882E-2,-4.3888878E-2,-4.4956606E-2,-2.9860182E-2,-5.8186848E-2,-3.9235342E-2,3.5902444E-2,-2.023678E-3,-8.87076E-3,-7.808747E-2,3.392008E-2,4.819065E-2,3.887139E-2,1.2025579E-2,5.855448E-2,6.2250037E-2,4.1622486E-2,5.0016016E-2,2.7076466E-2,-8.6149183E-4,2.6823753E-2,4.7083076E-2,4.4220548E-2,2.8074477E-2,3.18E-2,-1.5722288E-2],"categories":[],"categories_nodes":[],"categories_segments":[],"categories_sizes":[],"default_left":[0,0,0,0,0,0,0,0,0,0,0,0,0,0,0,0,0,0,0,0,0,0,0,0,0,0,0,0,0,0,0,0,0,0,0,0,0,0,0,0,0,0,0,0,0,0,0,0,0,0,0,0,0,0,0,0,0,0,0,0,0,0,0,0,0,0,0,0,0,0,0,0,0,0,0,0,0,0,0,0,0,0,0,0,0,0,0,0,0,0,0,0,0,0,0,0,0,0,0],"id":13,"left_children":[1,3,5,7,9,11,13,15,17,19,21,23,25,-1,-1,27,29,31,33,35,37,39,41,43,45,47,49,51,53,55,57,59,61,63,65,67,69,71,73,75,77,79,81,83,85,87,89,91,93,95,97,-1,-1,-1,-1,-1,-1,-1,-1,-1,-1,-1,-1,-1,-1,-1,-1,-1,-1,-1,-1,-1,-1,-1,-1,-1,-1,-1,-1,-1,-1,-1,-1,-1,-1,-1,-1,-1,-1,-1,-1,-1,-1,-1,-1,-1,-1,-1,-1],"loss_changes":[3.695978E5,4.55995E4,2.035E3,3.908202E4,5.332125E3,1.7429141E3,2.265625E0,5.985547E2,3.6258008E3,9.5690625E2,2.3638477E3,9.455781E2,6.404932E1,0E0,0E0,6.2054688E1,1.387649E2,6.022466E2,2.0684277E3,3.9436328E3,3.9322656E2,1.4313867E3,1.8573198E2,9.742139E1,4.3404688E2,5.511267E1,6.227661E1,3.0777344E1,5.5523438E1,1.35479E2,2.9931696E2,4.6621106E2,3.6738297E2,4.0395825E2,3.8981843E3,4.3380078E2,8.7594946E2,2.2789062E1,1.2574805E2,3.0588672E2,2.6087305E2,2.3832137E2,2.3719174E2,6.7740234E1,8.178111E1,5.4128906E1,3.848291E1,7.809503E1,3.8257812E1,4.4264404E1,7.4140686E1,0E0,0E0,0E0,0E0,0E0,0E0,0E0,0E0,0E0,0E0,0E0,0E0,0E0,0E0,0E0,0E0,0E0,0E0,0E0,0E0,0E0,0E0,0E0,0E0,0E0,0E0,0E0,0E0,0E0,0E0,0E0,0E0,0E0,0E0,0E0,0E0,0E0,0E0,0E0,0E0,0E0,0E0,0E0,0E0,0E0,0E0,0E0,0E0],"parents":[2147483647,0,0,1,1,2,2,3,3,4,4,5,5,6,6,7,7,8,8,9,9,10,10,11,11,12,12,15,15,16,16,17,17,18,18,19,19,20,20,21,21,22,22,23,23,24,24,25,25,26,26,27,27,28,28,29,29,30,30,31,31,32,32,33,33,34,34,35,35,36,36,37,37,38,38,39,39,40,40,41,41,42,42,43,43,44,44,45,45,46,46,47,47,48,48,49,49,50,50],"right_children":[2,4,6,8,10,12,14,16,18,20,22,24,26,-1,-1,28,30,32,34,36,38,40,42,44,46,48,50,52,54,56,58,60,62,64,66,68,70,72,74,76,78,80,82,84,86,88,90,92,94,96,98,-1,-1,-1,-1,-1,-1,-1,-1,-1,-1,-1,-1,-1,-1,-1,-1,-1,-1,-1,-1,-1,-1,-1,-1,-1,-1,-1,-1,-1,-1,-1,-1,-1,-1,-1,-1,-1,-1,-1,-1,-1,-1,-1,-1,-1,-1,-1,-1],"split_conditions":[1.1899996E1,9.644781E0,1.288173E1,8.295548E0,1.1085813E1,1.2472192E1,1.3250142E1,8.1792E0,8.711937E0,1.0378541E1,1.1791185E1,1.1996839E1,1.2643876E1,6.540513E-2,6.47576E-2,8E0,4E0,8.495152E0,8.890135E0,1.0284455E1,1.0977397E1,1.1323857E1,5E0,1E0,1.2259769E1,8E0,5E0,7.590347E0,4E0,2E0,6E0,3E0,1.2E1,5E0,9.248214E0,9.694863E0,1.0347307E1,1.04252825E1,1.1E1,4E0,1.1718931E1,2E0,1.2E1,1E1,3E0,1.2115661E1,4E0,1.2E1,7E0,1E0,1.1E1,-6.16416E-2,-6.594888E-2,-5.8185276E-2,-6.9115385E-2,-2.8965821E-2,-5.0656386E-2,1.1124975E-3,-7.61844E-2,-4.8425747E-3,-2.4610763E-2,-3.5433162E-3,-2.2350693E-2,3.7018813E-2,1.8628066E-2,-1.6716076E-2,1.3759601E-2,-4.174182E-2,-6.683775E-2,-2.1231642E-2,-5.22335E-2,-6.3333146E-2,-6.745728E-2,-5.8725882E-2,-4.3888878E-2,-4.4956606E-2,-2.9860182E-2,-5.8186848E-2,-3.9235342E-2,3.5902444E-2,-2.023678E-3,-8.87076E-3,-7.808747E-2,3.392008E-2,4.819065E-2,3.887139E-2,1.2025579E-2,5.855448E-2,6.2250037E-2,4.1622486E-2,5.0016016E-2,2.7076466E-2,-8.6149183E-4,2.6823753E-2,4.7083076E-2,4.4220548E-2,2.8074477E-2,3.18E-2,-1.5722288E-2],"split_indices":[0,0,0,0,0,0,0,0,0,0,0,0,0,0,0,7,5,0,0,0,0,0,6,3,0,6,6,0,5,4,6,4,7,4,0,0,0,0,7,7,0,7,7,7,6,0,7,7,4,8,4,0,0,0,0,0,0,0,0,0,0,0,0,0,0,0,0,0,0,0,0,0,0,0,0,0,0,0,0,0,0,0,0,0,0,0,0,0,0,0,0,0,0,0,0,0,0,0,0],"split_type":[0,0,0,0,0,0,0,0,0,0,0,0,0,0,0,0,0,0,0,0,0,0,0,0,0,0,0,0,0,0,0,0,0,0,0,0,0,0,0,0,0,0,0,0,0,0,0,0,0,0,0,0,0,0,0,0,0,0,0,0,0,0,0,0,0,0,0,0,0,0,0,0,0,0,0,0,0,0,0,0,0,0,0,0,0,0,0,0,0,0,0,0,0,0,0,0,0,0,0],"sum_hessian":[4.3196578E5,2.725162E5,1.594496E5,1.3604333E5,1.3647284E5,6.4352574E4,9.5097016E4,3.6493758E4,9.954957E4,1.0123356E5,3.5239285E4,5.565671E4,8.695865E3,5.2075316E4,4.3021695E4,3.1273025E4,5.220732E3,3.8392492E4,6.115708E4,4.0365484E4,6.086808E4,3.1420676E4,3.8186086E3,4.6954126E3,5.0961297E4,3.788157E3,4.907708E3,1.7466543E4,1.3806482E4,4.6091445E3,6.1158765E2,1.4374633E4,2.401786E4,1.1961965E4,4.9195113E4,2.9296287E4,1.1069196E4,5.2872566E4,7.995513E3,1.7231615E4,1.4189061E4,2.1670452E3,1.6515635E3,3.5163293E3,1.1790831E3,4.2937027E4,8.024271E3,2.829187E3,9.5897003E2,2.8828904E3,2.0248175E3,8.8422E3,8.624343E3,1.2490602E4,1.3158809E3,8.992274E2,3.709917E3,4.3705927E2,1.7452835E2,4.2242554E3,1.0150378E4,2.105694E4,2.9609211E3,5.79695E3,6.165015E3,1.5170603E4,3.402451E4,1.8438894E3,2.7452396E4,7.859876E3,3.20932E3,3.9015315E3,4.8971035E4,6.109212E3,1.8863014E3,4.57401E3,1.26576045E4,1.2039894E4,2.1491667E3,5.5659985E2,1.6104453E3,1.517759E3,1.338044E2,2.134857E3,1.3814723E3,4.7630472E2,7.0277844E2,1.6583725E4,2.63533E4,1.8028754E3,6.2213955E3,2.5519495E3,2.772374E2,4.202302E2,5.3873987E2,2.3564375E3,5.2645276E2,1.9396915E3,8.512601E1],"tree_param":{"num_deleted":"0","num_feature":"9","num_nodes":"99","size_leaf_vector":"1"}},{"base_weights":[3.131595E-5,-6.841242E-1,1.1826923E0,-2.8149518E-1,-1.0848762E0,1.0431097E0,1.2779146E0,-1.1555657E0,3.4855794E-2,-1.2004733E0,-7.5333196E-1,1.1087955E0,6.291044E-1,6.41977E-2,6.352888E-2,-1.2090806E0,-8.391158E-1,-2.0377746E-1,1.8781094E-1,-1.0736959E0,-1.2878021E0,-8.417938E-1,-3.6111206E-2,6.7990255E-1,1.1489112E0,5.3350663E-1,7.031208E-1,-1.2502273E0,-1.1571164E0,-8.974937E-1,-4.0274873E-1,-3.5859248E-1,-1.1142338E-1,5.2429646E-1,1.0386624E-1,-1.256655E0,-5.794185E-1,-1.3201602E0,-1.0756354E0,-6.614321E-1,-1.0931926E0,-2.9275867E-1,1.3859698E-1,7.7327126E-1,4.6773672E-1,1.1896799E0,9.3264246E-1,4.2333862E-1,6.6222584E-1,7.9633015E-1,5.709357E-1,-6.0337674E-2,-6.4738706E-2,-5.8874138E-2,-4.743418E-2,-2.7775213E-2,-4.9050327E-2,1.0566389E-3,-7.425178E-2,-4.6031075E-3,-2.349906E-2,-1.4128995E-3,-1.4242607E-2,3.526377E-2,1.7715527E-2,-1.5889714E-2,1.4967458E-2,-3.8384937E-2,-6.565715E-2,-2.2385525E-2,-5.7653006E-2,-6.2105346E-2,-6.631839E-2,-5.729142E-2,-4.247802E-2,-2.8033895E-2,-4.148948E-2,-5.7973355E-2,-3.7785206E-2,-7.1753986E-2,-8.835348E-3,-4.426973E-2,1.0502399E-2,4.0658206E-2,-4.609307E-3,-2.2407351E-2,2.9071195E-2,5.7162713E-2,6.094658E-2,4.410151E-2,5.1609766E-2,2.4172109E-2,-1.1203498E-1,1.9882932E-2,4.3607287E-2,7.735548E-3,4.1047566E-2,2.1361569E-2,4.172298E-2],"categories":[],"categories_nodes":[],"categories_segments":[],"categories_sizes":[],"default_left":[0,0,0,0,0,0,0,0,0,0,0,0,0,0,0,0,0,0,0,0,0,0,0,0,0,0,0,0,0,0,0,0,0,0,0,0,0,0,0,0,0,0,0,0,0,0,0,0,0,0,0,0,0,0,0,0,0,0,0,0,0,0,0,0,0,0,0,0,0,0,0,0,0,0,0,0,0,0,0,0,0,0,0,0,0,0,0,0,0,0,0,0,0,0,0,0,0,0,0],"id":14,"left_children":[1,3,5,7,9,11,13,15,17,19,21,23,25,-1,-1,27,29,31,33,35,37,39,41,43,45,47,49,51,53,55,57,59,61,63,65,67,69,71,73,75,77,79,81,83,85,87,89,91,93,95,97,-1,-1,-1,-1,-1,-1,-1,-1,-1,-1,-1,-1,-1,-1,-1,-1,-1,-1,-1,-1,-1,-1,-1,-1,-1,-1,-1,-1,-1,-1,-1,-1,-1,-1,-1,-1,-1,-1,-1,-1,-1,-1,-1,-1,-1,-1,-1,-1],"loss_changes":[3.422187E5,4.323396E4,2.058875E3,3.695915E4,5.145672E3,1.708875E3,2.4375E0,6.005117E2,3.5822473E3,1.1009688E3,2.2027637E3,9.327031E2,6.055249E1,0E0,0E0,6.3507812E1,1.3060645E2,5.480664E2,1.6892986E3,3.6723945E3,4.0328906E2,1.4006758E3,1.710133E2,9.161621E1,4.3633594E2,5.3063232E1,5.9301514E1,3.125E1,5.5929688E1,1.2894116E2,2.79167E2,4.2519458E2,3.463335E2,3.671106E2,3.9457249E3,8.177461E2,8.2866797E2,2.3140625E1,1.2290723E2,3.0483838E2,2.8786328E2,2.0452496E2,1.662259E2,1.113396E2,1.482649E2,5.5285156E1,3.8762695E1,3.2607123E2,9.590106E1,4.4766113E1,7.573071E1,0E0,0E0,0E0,0E0,0E0,0E0,0E0,0E0,0E0,0E0,0E0,0E0,0E0,0E0,0E0,0E0,0E0,0E0,0E0,0E0,0E0,0E0,0E0,0E0,0E0,0E0,0E0,0E0,0E0,0E0,0E0,0E0,0E0,0E0,0E0,0E0,0E0,0E0,0E0,0E0,0E0,0E0,0E0,0E0,0E0,0E0,0E0,0E0],"parents":[2147483647,0,0,1,1,2,2,3,3,4,4,5,5,6,6,7,7,8,8,9,9,10,10,11,11,12,12,15,15,16,16,17,17,18,18,19,19,20,20,21,21,22,22,23,23,24,24,25,25,26,26,27,27,28,28,29,29,30,30,31,31,32,32,33,33,34,34,35,35,36,36,37,37,38,38,39,39,40,40,41,41,42,42,43,43,44,44,45,45,46,46,47,47,48,48,49,49,50,50],"right_children":[2,4,6,8,10,12,14,16,18,20,22,24,26,-1,-1,28,30,32,34,36,38,40,42,44,46,48,50,52,54,56,58,60,62,64,66,68,70,72,74,76,78,80,82,84,86,88,90,92,94,96,98,-1,-1,-1,-1,-1,-1,-1,-1,-1,-1,-1,-1,-1,-1,-1,-1,-1,-1,-1,-1,-1,-1,-1,-1,-1,-1,-1,-1,-1,-1,-1,-1,-1,-1,-1,-1,-1,-1,-1,-1,-1,-1,-1,-1,-1,-1,-1,-1],"split_conditions":[1.1899996E1,9.617471E0,1.288173E1,8.295548E0,1.1085813E1,1.2472192E1,1.3250142E1,8.1792E0,8.711937E0,1.0378541E1,1.1791185E1,1.1996839E1,1.2643876E1,6.41977E-2,6.352888E-2,8E0,4E0,8.495152E0,8.890135E0,1.0284455E1,1.0977397E1,1.1342196E1,1.1836812E1,6E0,1.2259769E1,6E0,5E0,7.590347E0,1.1E1,2E0,6E0,3E0,1E0,5E0,9.248214E0,9.694863E0,1.0357648E1,1.04252825E1,1.1E1,3E0,1.1718931E1,2E0,1E0,4E0,3E0,1.2115661E1,1E0,1.3E1,7E0,1E0,9E0,-6.0337674E-2,-6.4738706E-2,-5.8874138E-2,-4.743418E-2,-2.7775213E-2,-4.9050327E-2,1.0566389E-3,-7.425178E-2,-4.6031075E-3,-2.349906E-2,-1.4128995E-3,-1.4242607E-2,3.526377E-2,1.7715527E-2,-1.5889714E-2,1.4967458E-2,-3.8384937E-2,-6.565715E-2,-2.2385525E-2,-5.7653006E-2,-6.2105346E-2,-6.631839E-2,-5.729142E-2,-4.247802E-2,-2.8033895E-2,-4.148948E-2,-5.7973355E-2,-3.7785206E-2,-7.1753986E-2,-8.835348E-3,-4.426973E-2,1.0502399E-2,4.0658206E-2,-4.609307E-3,-2.2407351E-2,2.9071195E-2,5.7162713E-2,6.094658E-2,4.410151E-2,5.1609766E-2,2.4172109E-2,-1.1203498E-1,1.9882932E-2,4.3607287E-2,7.735548E-3,4.1047566E-2,2.1361569E-2,4.172298E-2],"split_indices":[0,0,0,0,0,0,0,0,0,0,0,0,0,0,0,7,5,0,0,0,0,0,0,6,0,6,6,0,4,4,6,4,3,4,0,0,0,0,7,5,0,4,6,5,7,0,8,7,4,7,4,0,0,0,0,0,0,0,0,0,0,0,0,0,0,0,0,0,0,0,0,0,0,0,0,0,0,0,0,0,0,0,0,0,0,0,0,0,0,0,0,0,0,0,0,0,0,0,0],"split_type":[0,0,0,0,0,0,0,0,0,0,0,0,0,0,0,0,0,0,0,0,0,0,0,0,0,0,0,0,0,0,0,0,0,0,0,0,0,0,0,0,0,0,0,0,0,0,0,0,0,0,0,0,0,0,0,0,0,0,0,0,0,0,0,0,0,0,0,0,0,0,0,0,0,0,0,0,0,0,0,0,0,0,0,0,0,0,0,0,0,0,0,0,0,0,0,0,0,0,0],"sum_hessian":[4.2294766E5,2.6794503E5,1.5500262E5,1.3366034E5,1.3428467E5,6.2864332E4,9.21383E4,3.5519133E4,9.814122E4,9.9566805E4,3.4717867E4,5.425465E4,8.609685E3,5.0443484E4,4.169481E4,3.0378934E4,5.140198E3,3.833401E4,5.9807207E4,4.061632E4,5.895048E4,3.0905783E4,3.812086E3,4.642095E3,4.9612555E4,3.7606875E3,4.848997E3,1.6941291E4,1.3437644E4,4.5327437E3,6.074549E2,1.4322323E4,2.4011688E4,1.1940289E4,4.7866918E4,2.964248E4,1.0973841E4,5.1144996E4,7.805483E3,1.7997453E4,1.290833E4,1.543702E3,2.268384E3,3.221675E3,1.4204203E3,4.1739727E4,7.8728257E3,2.028676E3,1.7320114E3,2.8408027E3,2.0081945E3,8.588108E3,8.353183E3,1.2237269E4,1.200375E3,8.9113745E2,3.641606E3,4.372032E2,1.7025171E2,4.221932E3,1.0100391E4,1.6229984E4,7.781703E3,5.781621E3,6.158668E3,1.516186E4,3.2705057E4,3.071381E3,2.65711E4,8.926174E3,2.0476669E3,3.782768E3,4.7362227E4,5.953073E3,1.8524098E3,1.1261997E4,6.735455E3,1.0787495E4,2.1208357E3,1.4131761E2,1.4023844E3,1.4721387E2,2.1211702E3,3.0797747E3,1.4190039E2,1.5652065E2,1.2638997E3,1.6149228E4,2.55905E4,5.225875E3,2.646951E3,1.9847173E3,4.3958813E1,7.675471E2,9.6446423E2,1.0525205E2,2.7355508E3,1.3012308E3,7.069637E2],"tree_param":{"num_deleted":"0","num_feature":"9","num_nodes":"99","size_leaf_vector":"1"}},{"base_weights":[3.1631545E-5,-6.617597E-1,1.1575687E0,-2.6993632E-1,-1.0586387E0,1.0156007E0,1.2552623E0,-1.1295696E0,3.3170573E-2,-1.1760072E0,-7.269444E-1,1.08199E0,6.038518E-1,6.3075565E-2,6.2383752E-2,-1.1843133E0,-8.1033605E-1,-1.9390146E-1,1.7875153E-1,-1.0470103E0,-1.2655461E0,-8.136676E-1,-3.44272E-2,6.535597E-1,1.1227124E0,5.107738E-1,6.762383E-1,-1.2208402E0,-1.1226137E0,-8.677037E-1,-3.857492E-1,-3.296826E-1,-9.7118534E-2,4.9917167E-1,9.88489E-2,-1.2331837E0,-5.5543274E-1,-1.2990478E0,-1.0479999E0,-6.353942E-1,-1.0657512E0,1.5034412E-1,-2.7698684E-1,7.367944E-1,4.0752557E-1,1.1643765E0,9.038204E-1,4.277891E-1,6.7969537E-1,7.679955E-1,5.4696435E-1,-6.3141875E-2,-5.7235736E-2,-4.562541E-2,-5.893883E-2,-2.663298E-2,-4.7517296E-2,1.0036117E-3,-7.2501406E-2,-8.29348E-3,-2.249683E-2,1.4952562E-2,-6.917885E-3,3.7398886E-2,1.925922E-2,-1.5105763E-2,1.4250605E-2,-3.69849E-2,-6.4567134E-2,-1.9277569E-2,-4.9012028E-2,-6.0955223E-2,-6.527117E-2,-5.5931527E-2,-4.111975E-2,-4.67252E-2,-2.903424E-2,-5.66522E-2,-3.6394257E-2,-8.778628E-3,2.311562E-2,-9.138446E-3,-8.855218E-2,3.1312667E-2,4.5411933E-2,2.6472246E-2,-7.940106E-3,5.584215E-2,5.972082E-2,4.249538E-2,4.9916115E-2,-2.788875E-2,2.5379732E-2,3.6217492E-2,-7.41622E-3,4.138441E-2,2.5156697E-2,2.9278448E-2,-1.9861696E-2],"categories":[],"categories_nodes":[],"categories_segments":[],"categories_sizes":[],"default_left":[0,0,0,0,0,0,0,0,0,0,0,0,0,0,0,0,0,0,0,0,0,0,0,0,0,0,0,0,0,0,0,0,0,0,0,0,0,0,0,0,0,0,0,0,0,0,0,0,0,0,0,0,0,0,0,0,0,0,0,0,0,0,0,0,0,0,0,0,0,0,0,0,0,0,0,0,0,0,0,0,0,0,0,0,0,0,0,0,0,0,0,0,0,0,0,0,0,0,0],"id":15,"left_children":[1,3,5,7,9,11,13,15,17,19,21,23,25,-1,-1,27,29,31,33,35,37,39,41,43,45,47,49,51,53,55,57,59,61,63,65,67,69,71,73,75,77,79,81,83,85,87,89,91,93,95,97,-1,-1,-1,-1,-1,-1,-1,-1,-1,-1,-1,-1,-1,-1,-1,-1,-1,-1,-1,-1,-1,-1,-1,-1,-1,-1,-1,-1,-1,-1,-1,-1,-1,-1,-1,-1,-1,-1,-1,-1,-1,-1,-1,-1,-1,-1,-1,-1],"loss_changes":[3.1708522E5,4.0953336E4,2.0869688E3,3.4530496E4,5.092578E3,1.6772422E3,2.65625E0,6.0277734E2,3.2389253E3,1.1148594E3,2.053795E3,9.214531E2,5.7092285E1,0E0,0E0,6.508594E1,1.2291943E2,5.0297217E2,1.5284733E3,3.623461E3,4.1434375E2,1.365123E3,1.7066295E2,9.3704346E1,4.3914062E2,5.2045837E1,5.6427246E1,5.773242E1,1.2846484E2,1.22904785E2,2.609533E2,3.1370605E2,3.6517264E2,3.3765967E2,3.5671516E3,8.233711E2,7.8477686E2,2.359375E1,1.20450195E2,2.9081445E2,2.853789E2,2.1985786E2,2.3143912E2,6.441174E1,8.035898E1,5.6558594E1,3.849756E1,1.9741406E2,4.552124E1,4.3860107E1,7.287738E1,0E0,0E0,0E0,0E0,0E0,0E0,0E0,0E0,0E0,0E0,0E0,0E0,0E0,0E0,0E0,0E0,0E0,0E0,0E0,0E0,0E0,0E0,0E0,0E0,0E0,0E0,0E0,0E0,0E0,0E0,0E0,0E0,0E0,0E0,0E0,0E0,0E0,0E0,0E0,0E0,0E0,0E0,0E0,0E0,0E0,0E0,0E0,0E0],"parents":[2147483647,0,0,1,1,2,2,3,3,4,4,5,5,6,6,7,7,8,8,9,9,10,10,11,11,12,12,15,15,16,16,17,17,18,18,19,19,20,20,21,21,22,22,23,23,24,24,25,25,26,26,27,27,28,28,29,29,30,30,31,31,32,32,33,33,34,34,35,35,36,36,37,37,38,38,39,39,40,40,41,41,42,42,43,43,44,44,45,45,46,46,47,47,48,48,49,49,50,50],"right_children":[2,4,6,8,10,12,14,16,18,20,22,24,26,-1,-1,28,30,32,34,36,38,40,42,44,46,48,50,52,54,56,58,60,62,64,66,68,70,72,74,76,78,80,82,84,86,88,90,92,94,96,98,-1,-1,-1,-1,-1,-1,-1,-1,-1,-1,-1,-1,-1,-1,-1,-1,-1,-1,-1,-1,-1,-1,-1,-1,-1,-1,-1,-1,-1,-1,-1,-1,-1,-1,-1,-1,-1,-1,-1,-1,-1,-1,-1,-1,-1,-1,-1,-1],"split_conditions":[1.1899996E1,9.617471E0,1.288173E1,8.295548E0,1.1085813E1,1.2472192E1,1.3250142E1,8.1792E0,8.711937E0,1.0378541E1,1.1791185E1,1.1996839E1,1.2643876E1,6.3075565E-2,6.2383752E-2,9E0,4E0,8.513787E0,8.890135E0,1.0284455E1,1.0977397E1,1.1342196E1,5E0,1E0,1.2259769E1,1E0,5E0,1E0,1E1,2E0,6E0,2E0,1E0,3E0,9.248214E0,9.694863E0,1.0347307E1,1.04252825E1,1.1E1,2E0,1.1718931E1,3E0,4E0,1E1,1E1,1.2115661E1,1E1,2E0,4E0,1E0,1.3E1,-6.3141875E-2,-5.7235736E-2,-4.562541E-2,-5.893883E-2,-2.663298E-2,-4.7517296E-2,1.0036117E-3,-7.2501406E-2,-8.29348E-3,-2.249683E-2,1.4952562E-2,-6.917885E-3,3.7398886E-2,1.925922E-2,-1.5105763E-2,1.4250605E-2,-3.69849E-2,-6.4567134E-2,-1.9277569E-2,-4.9012028E-2,-6.0955223E-2,-6.527117E-2,-5.5931527E-2,-4.111975E-2,-4.67252E-2,-2.903424E-2,-5.66522E-2,-3.6394257E-2,-8.778628E-3,2.311562E-2,-9.138446E-3,-8.855218E-2,3.1312667E-2,4.5411933E-2,2.6472246E-2,-7.940106E-3,5.584215E-2,5.972082E-2,4.249538E-2,4.9916115E-2,-2.788875E-2,2.5379732E-2,3.6217492E-2,-7.41622E-3,4.138441E-2,2.5156697E-2,2.9278448E-2,-1.9861696E-2],"split_indices":[0,0,0,0,0,0,0,0,0,0,0,0,0,0,0,7,5,0,0,0,0,0,6,3,0,8,6,3,7,4,6,5,7,4,0,0,0,0,7,4,0,6,5,7,7,0,7,7,5,8,7,0,0,0,0,0,0,0,0,0,0,0,0,0,0,0,0,0,0,0,0,0,0,0,0,0,0,0,0,0,0,0,0,0,0,0,0,0,0,0,0,0,0,0,0,0,0,0,0],"split_type":[0,0,0,0,0,0,0,0,0,0,0,0,0,0,0,0,0,0,0,0,0,0,0,0,0,0,0,0,0,0,0,0,0,0,0,0,0,0,0,0,0,0,0,0,0,0,0,0,0,0,0,0,0,0,0,0,0,0,0,0,0,0,0,0,0,0,0,0,0,0,0,0,0,0,0,0,0,0,0,0,0,0,0,0,0,0,0,0,0,0,0,0,0,0,0,0,0,0,0],"sum_hessian":[4.1392144E5,2.6335538E5,1.5056606E5,1.325226E5,1.30832766E5,6.1380074E4,8.918599E4,3.454571E4,9.797688E4,9.663604E4,3.4196734E4,5.2856066E4,8.524008E3,4.8815184E4,4.037081E4,2.948652E4,5.0591934E3,3.827561E4,5.9701277E4,3.9599105E4,5.703693E4,3.0390758E4,3.805976E3,4.5893794E3,4.8266684E4,3.7325596E3,4.7914487E3,1.8509732E4,1.0976787E4,4.4560723E3,6.03121E2,1.5927623E4,2.2347988E4,1.191506E4,4.7786215E4,2.8720414E4,1.0878694E4,4.942118E4,7.6157466E3,1.7803592E4,1.2587166E4,2.1605466E3,1.6454296E3,3.4277554E3,1.1616239E3,4.0545E4,7.721686E3,2.5053228E3,1.2272368E3,2.7994731E3,1.9919755E3,1.1918759E4,6.5909736E3,2.3189302E3,8.657856E3,8.831391E2,3.572933E3,4.373396E2,1.6578134E2,6.743643E3,9.1839795E3,2.1063916E3,2.0241596E4,3.7418865E3,8.1731733E3,1.5151599E4,3.2634617E4,3.0293862E3,2.5691027E4,7.7724033E3,3.1062905E3,3.6644617E3,4.575672E4,5.79693E3,1.8188164E3,2.7504004E3,1.505319E4,1.0494602E4,2.0925645E3,1.0568652E3,1.1036814E3,1.548877E3,9.655266E1,2.0868696E3,1.3408857E3,9.559018E2,2.0572205E2,1.5715654E4,2.4829346E4,4.9230854E3,2.7986003E3,1.8722203E2,2.3181008E3,1.1645583E3,6.2678486E1,2.2828542E3,5.1661865E2,1.9140953E3,7.788011E1],"tree_param":{"num_deleted":"0","num_feature":"9","num_nodes":"99","size_leaf_vector":"1"}},{"base_weights":[3.245272E-5,-6.402577E-1,1.1337593E0,-2.5470987E-1,-1.0294883E0,9.8924994E-1,1.2341127E0,-1.1048696E0,4.131562E-2,-1.1411854E0,-6.878531E-1,1.0563935E0,5.79661E-1,6.202937E-2,6.1312836E-2,-1.1609083E0,-7.827558E-1,-8.250573E-2,3.295961E-1,-1.0087997E0,-1.233843E0,-7.770192E-1,-3.277329E-2,6.282434E-1,1.0977738E0,4.8896703E-1,6.5053076E-1,-1.2045822E0,-1.1061481E0,-7.039047E-2,-7.426266E-1,-2.7536137E-2,-4.1077134E-1,4.880734E-1,-4.9541887E-2,-1.1847882E0,-5.3249806E-1,-1.279557E0,-1.0011575E0,-5.369946E-1,-1.0086844E0,1.4297779E-1,-2.6354632E-1,7.0975894E-1,3.8927707E-1,1.1403936E0,8.7610877E-1,4.2074353E-1,6.9175106E-1,7.409554E-1,5.240061E-1,-5.7911176E-2,-6.261368E-2,-5.115768E-2,-5.814141E-2,-4.0106613E-2,-1.5575563E-2,-9.224225E-3,1.3952988E-2,-5.818541E-2,-1.510579E-2,1.4049718E-2,2.6102085E-2,2.4182042E-3,-1.3234797E-2,-3.4671836E-2,-6.355804E-2,-2.038923E-2,-5.451105E-2,-5.9873927E-2,-6.430612E-2,-5.286479E-2,-3.5414416E-2,-2.0608319E-2,-3.762826E-2,-5.3044528E-2,-3.505784E-2,3.373344E-2,-1.9861034E-3,-7.7876984E-3,-7.546487E-2,3.0088296E-2,4.3914597E-2,3.512967E-2,8.998806E-3,5.4584295E-2,5.856367E-2,4.1234273E-2,4.8892062E-2,2.2996066E-2,-1.4656665E-2,1.9681143E-2,4.155527E-2,5.4928637E-3,3.827473E-2,1.9171443E-2,3.9174493E-2],"categories":[],"categories_nodes":[],